/*
 * IM1.h
 *
 *  Created on: 2020Äê3ÔÂ21ÈÕ
 *      Author: Administrator
 */

#ifndef SRC_IM1_H_
#define SRC_IM1_H_


short int qfc_wb[64*10+10] __attribute__ ((aligned (64))) ={
//weight
-2173,-801,786,-3083,841,-995,-10440,268,8396,2448,
1246,6936,13410,6674,82,-3411,-148,6299,8709,-9202,
5,-341,6,3655,9268,-1907,-7356,8930,-4451,-8038,
-3522,-4242,-1685,-374,692,-2072,2893,-1185,2921,-1278,
-27,3013,6481,-37,4471,-666,-10043,8036,-1849,-339,
-1532,-3078,2975,-4652,2062,-1152,2526,-4238,-854,-2437,
-4182,-613,1631,8900,-4729,7715,-2272,2038,-3685,3542,
-7431,-5211,9171,13488,-12700,-197,-16143,11916,9665,3513,
2941,-12042,-5152,-6017,14819,567,5597,-15391,1922,14188,
525,-2090,-1297,4003,4868,-248,-1169,-3128,-5098,-1581,
2840,1246,-7821,-11972,-1431,7415,7676,-5321,5850,-814,
-5027,-2397,7538,2529,3638,556,7584,3644,2616,-6230,
-1023,5054,5520,10762,-6350,-3451,-9883,8443,-4325,-11932,
-743,6464,-5285,-6142,1062,-3495,1782,684,-6623,-1238,
-6523,-5666,271,-4644,3805,-1768,1550,3445,908,3357,
-947,-7424,-5249,-1905,2212,-779,-674,2270,3776,3954,
7551,-3101,3566,-1253,-6081,5811,2895,8956,-3447,-7484,
-275,5662,1743,-4860,-5287,2696,2691,4546,-8086,-1484,
6109,-2171,9937,-1030,-8312,-12460,-4088,3260,-1886,12057,
-643,-6079,303,3629,225,-9196,3837,3180,-1339,-1550,
-4191,23,1,9944,1887,-7888,-6452,-7031,6962,14536,
-171,5534,-7127,-4698,-3561,6533,11307,1987,-7997,-872,
3399,2020,-1287,1675,5334,4658,-3906,-1302,-4538,-2241,
11029,-17387,-3254,-5501,-4736,4670,-322,4504,-725,3566,
-10295,-5177,8,7680,2625,-2383,6441,4458,1801,-10897,
1184,-6461,1167,4932,-606,-1646,6344,-4557,-2783,-1599,
9187,10194,11478,-1925,10440,-15734,-12099,6580,-6467,-478,
-5543,-696,1461,-1847,4698,-4079,6463,3278,4570,-9416,
5528,1994,2885,-3650,-10711,6029,4267,-2082,-2347,-552,
-3555,3745,-7453,4393,-5728,11057,3971,-3399,5640,526,
5155,-2253,-1037,496,-4229,6228,7124,1747,-372,-1172,
2533,12602,-2433,5581,-2003,5209,-8169,-5242,-4480,4201,
-3780,-2982,-1676,478,-486,5554,-5224,-1360,-852,2362,
-1221,-5717,-3757,4917,2584,3029,-12213,3229,-4991,6036,
7018,-2041,-4167,1637,-2700,8019,2839,-6694,8082,-8865,
-1529,5567,-465,-1063,685,-2620,-2393,-3128,-1441,-4935,
7972,7397,8731,981,-6444,7271,3183,-4691,-3132,-4196,
5230,1939,5492,614,-2677,2006,2702,648,1902,1558,
1180,-7638,-1236,-7579,3350,745,12488,-4191,-111,-3495,
-7991,-6674,-99,1158,4838,1882,-2873,-3736,-1572,9857,
9617,-5398,4723,5127,-15655,4993,6414,-8890,9067,-9206,
-1876,-613,369,-1795,-446,-754,-541,2356,-53,-4364,
2382,2707,127,-5901,1072,-9610,1468,1477,512,-737,
8922,-1621,-8695,-51,5775,4181,-3308,10281,-9905,1017,
-8951,-893,-7719,9571,4240,6927,-9191,-37,2383,-182,
1391,5867,-583,499,1526,5539,9525,-6891,-1669,1729,
2660,962,5982,-27,-1407,1047,2364,-12335,-1066,-4660,
5462,-457,-738,-8966,-1599,-1943,4210,3583,2060,-14155,
7380,7507,8921,-2140,2690,-1458,4370,254,-10473,-257,
-7858,3828,-3238,-963,-2319,4068,-8135,235,-4283,4771,
-6730,8199,-2852,6762,-2249,10895,-3445,-9126,4631,-697,
-5526,-625,4279,859,-2884,7485,-159,1998,-5067,179,
8912,-1168,-3731,3854,-12302,-1110,7102,-9891,5279,-8878,
-2777,3151,-5654,-2503,3343,-3336,-2034,714,10664,-716,
6040,7975,12210,-11221,7199,-9233,-5016,4163,-6242,-7893,
1622,-7543,-3622,7715,-396,3722,1245,841,5328,-6046,
-11011,10627,3667,-7629,2926,806,-5030,-1186,5750,3816,
-399,-2804,-1598,-5686,-405,-3815,-4791,-1391,1005,-676,
-2085,2776,-17239,-3244,4664,4204,-1439,4913,-6389,8937,
1990,5865,3397,-764,783,-4620,-4010,701,-305,2580,
4936,5166,-5283,-3739,1773,-1052,2943,-3682,-4373,1301,
-894,2004,4334,-5210,3127,-4843,-3336,2425,-3642,-1174,
3849,6863,11420,-1572,13,1380,1497,289,-4547,4032,
-10500,3897,-1914,-3079,-3762,-3709,-4934,2246,-456,4150,

//bias
5650,31084,11491,19824,-1195,16719,-4087,13524,23159,14901,
};


short int qc3_wb[3*3*8*16+16]={
4997,5339,14082,-2554,-3496,4801,172,391,-7603,-2318,-8893,-3760,-4351,1851,-4300,8797,
-6423,4133,-1776,-1387,1458,8071,-2281,4709,-1463,2854,-5961,3141,-6839,-1760,2234,-3645,
-6158,3527,7879,3330,3277,4812,8454,2272,2158,347,-6051,3373,5049,-3131,-8202,-102,
573,-2937,353,-878,347,8691,-1773,1844,-1615,65,3037,-652,-3848,2408,-3724,-1001,
-560,1105,-1193,2513,-6433,868,-515,-4835,2420,-4703,6222,1481,1821,-1453,-2533,-3529,
-6405,1248,-1093,2704,5048,3162,2662,5121,-4564,-4644,4262,1063,-1230,183,475,-1225,
-3125,4594,1309,1220,-3972,6053,-120,-1867,-1085,-4785,1745,931,-4675,1488,-1907,3743,
-3432,7067,9287,-4104,11009,7636,5838,10880,-2082,-3,7731,1279,-15686,-2561,-6218,11633,
-3026,1411,7395,2107,-2767,-2741,5450,273,4956,-1287,-3475,-4665,-5400,2207,4378,5004,
-2443,-1547,-11967,-1357,-9691,5009,2308,122,-614,2350,1889,1154,-1049,-5486,1446,-74,
9629,3800,-3069,-3701,-5377,4156,3843,21399,-8719,937,-8508,-10420,10844,-4647,-1035,-2150,
-6380,-2233,417,1709,1308,-371,-4531,-4263,-658,2546,13078,4511,-6395,-3570,1339,242,
-2962,-2268,-1743,6352,-1648,-5857,5275,-7429,740,-3389,7324,2927,-2514,-79,0,-495,
2201,4385,-1027,-849,589,1803,4249,8799,1573,5395,-3523,-2742,3991,-3003,2277,-3955,
-73,1737,-9976,2140,-1671,4503,2744,-5545,3701,6062,-2896,9702,-4047,-69,1298,3192,
-2277,835,2186,581,6950,-894,2768,9557,4353,-3427,15104,7126,-10319,1058,-5427,7434,
6756,3454,-4204,-4967,-3923,-1983,-6232,2795,4149,-1477,-4481,-7248,-1262,1278,-1270,1633,
1278,-822,-1175,2810,-2388,-4083,4189,-3341,3160,1392,4780,-288,-1154,2791,6506,-6095,
-1519,1764,-1765,-1084,-12460,749,3611,11876,-1392,2586,-3450,1182,8264,-3618,-3539,6401,
1206,2093,-2065,539,-2158,2857,-2537,-6791,1455,-3481,4524,2677,-3132,-1416,-439,1584,
-3644,-660,3052,-543,-2456,3578,-5867,-7757,-1757,1689,2498,-1951,146,-4289,-2632,619,
-3739,5036,-5134,-6883,-6332,-5436,10801,4026,2453,1676,929,-618,0,-3213,5479,-479,
-3040,-3640,-9323,2002,-6857,-527,4122,-5267,7351,-2938,485,-885,-607,3791,-1162,-4779,
-9009,2946,-4580,3705,9800,-6248,712,2909,829,-2956,6706,-2479,8670,-1493,-2459,-3317,
8698,-8835,-3195,-2962,4762,-1917,-12883,668,-4880,-2744,-10874,1083,10072,-3350,-27,-1996,
1212,-1146,-4857,2378,-2006,-5500,-3580,-6105,-3076,554,-6479,1974,-2450,3207,-386,-84,
5709,14162,2404,-4662,-2354,-3654,-7274,-3725,-5993,3022,-4552,696,-3210,7008,-7637,-5495,
71,-7343,-4539,5600,-1855,-54,2108,-1442,2272,-5044,1153,7341,-4579,-3096,1792,-642,
678,-6852,-5641,780,345,66,32,-3119,4488,-2123,4355,4024,-6591,-526,-1645,7863,
-2436,-1982,-1297,-259,-4348,1993,1516,-1998,4078,4026,321,-4915,1102,3597,-2533,542,
429,1690,2515,7013,-3495,-6202,5245,-4334,-332,1785,2896,-2473,-3414,3969,2294,5123,
7036,-7733,-6961,1903,-5219,3735,-6527,-7057,4369,520,-6493,-5942,3697,-1445,3204,4932,
10048,-6440,3889,-1772,-2799,3857,-4715,-3730,1162,-2434,192,4301,11095,-3013,5234,-4273,
-928,4349,-1926,288,3451,-3708,4145,-3095,5900,-1509,985,-1173,-7247,4036,493,200,
-644,1285,-2565,475,-209,-5346,-5511,-1176,-7465,-2309,-10325,-3398,-6701,6139,-2003,-7203,
3750,2796,2945,4030,2570,-4159,-1938,-5961,8566,-702,8462,-6141,2000,1476,4999,-1679,
-1176,2623,3539,-4576,-1834,-441,5222,-2388,7291,-2862,6023,3696,1177,961,3866,9894,
-1711,4293,-2335,-11,556,-7453,1703,2532,764,3012,-5711,-4713,-6224,2674,-4709,-1003,
-2553,-4367,-6910,3522,3796,-4204,2389,-714,3647,-904,-1221,7104,-1691,-2802,5393,-1263,
3468,-10850,3439,-3827,4916,-4164,8109,-4411,4754,-3297,12710,-11085,-3786,-11,-4591,2647,
1464,-914,4289,-15,3466,-1339,2791,-921,-965,-1079,1028,2731,4067,1152,9020,-4785,
-276,2874,-3067,496,2042,-2449,4840,-3989,5187,3087,-300,4473,-5091,3093,-5035,6798,
587,-6593,-7223,-3887,-3719,599,813,-2870,-2493,4240,-3056,6511,848,8843,-4703,-96,
2579,202,2253,3723,5655,500,2107,-55,-2072,934,1976,1887,7658,4721,759,-96,
-920,-1241,3984,3222,8349,-1236,3659,-1168,3610,-2244,-3065,590,-2464,699,-1665,-639,
-230,-356,-433,4053,-2904,-3279,-6648,-6124,-750,995,-3333,-825,-2158,2473,-5071,-1263,
89,-2383,-8465,-618,-497,-2202,-2484,324,-1851,-1465,1175,2066,-3021,1216,-3826,1244,
2313,-3590,-2741,-3347,1669,-5491,-191,-837,-8511,2618,2211,-1667,650,2296,-999,-3291,
-10935,-1309,137,-5,-2513,3821,-7984,3654,1338,-2392,-7271,598,5362,9156,-907,-9113,
3430,-5662,2740,-1679,6708,-655,-7427,3369,-6967,464,687,1866,1549,1888,3727,-2483,
-376,-6513,2364,-2496,11072,2001,-1994,-4964,-2676,-1485,-2339,-5318,6922,-1462,3103,701,
-1213,-1090,-2260,3468,-8603,1170,-8402,2520,5703,4289,6954,1884,4357,-3497,6235,-2443,
-3687,-5295,961,-2009,-11811,4983,-2446,-3092,8693,-4406,4013,-4049,2814,4404,765,409,
2711,499,5457,3343,8206,-2422,1248,-1552,787,-351,612,5245,-2280,-7773,2187,673,
661,-119,1212,3313,-1252,-2646,-1641,1685,-10240,1254,3708,1986,1322,3991,1618,-3747,
-3576,292,-333,5146,1862,-4324,-6133,-1933,12462,-1211,712,4979,-714,6129,4528,2523,
-2019,2318,5948,5821,-8448,-4953,-807,-4448,10819,-473,-1730,2188,-1802,-3396,491,2483,
-1923,-454,-2012,2421,3290,-1997,1749,2082,-13789,-3437,-2068,4179,1315,1301,-2635,-4214,
10271,-5241,-49,101,7918,3433,10478,6802,5761,2723,146,-889,5573,4888,3621,-2946,
-4444,985,6929,2626,-4118,571,-4092,3161,-229,-3465,3146,6717,-4458,-1178,-3940,-3557,
-3509,-4430,4654,-1077,-1456,-194,-2358,662,1263,5254,8830,1155,-2992,-1384,-3455,-812,
-4391,-574,-2136,-2944,-1720,-2849,-953,4192,-2037,-943,1480,-1070,-213,-3888,1606,2394,
-3531,1628,3198,-2163,763,22,753,4306,-14897,-4553,1723,-1803,2250,2090,-1561,-5960,
-3778,6626,4350,1412,-7349,309,-4004,10583,-595,-4775,888,8302,-738,-7945,3237,3560,
158,323,3033,45,-3845,-1232,-4002,-8580,1642,-1405,-5447,-1096,3478,-3402,1090,788,
-640,2915,-956,-751,-1369,-1310,3093,400,-4378,-126,-2568,10111,1270,4071,2108,-4081,
-1215,1623,-3891,-2405,-2304,-5762,6496,-4459,7712,804,-396,-1443,1030,1673,4737,-1192,
-3950,922,3924,-4892,-5059,-2830,1433,6826,1830,-6417,-1491,3900,-1697,-6721,3857,3649,
539,2979,1246,848,-1313,7277,-1538,5338,-758,-2546,-1447,1020,-2719,441,-1064,2214,
590,-377,-2874,-2288,-2333,1449,3137,-3459,4092,-33,-3440,485,-1611,-1031,1120,-5178,
3923,5691,-847,-1790,3227,4241,-4615,3565,-4679,-62,918,310,-3270,3019,-1905,-4258,
2663,1569,640,-5004,-6322,-1207,-12565,1014,5372,1987,-4737,849,-2417,-10207,3162,1775,

-21066,24566,13945,-7344,17381,4976,11665,-14384,-13557,282,-16720,-13638,-11567,-469,-15471,22909,
};

short int qc3_b[16]={
-21066,24566,13945,-7344,17381,4976,11665,-14384,-13557,282,-16720,-13638,-11567,-469,-15471,22909,
};

short int qc2_w[3*3*8*16]={
4997,5339,14082,-2554,-3496,4801,172,391,-7603,-2318,-8893,-3760,-4351,1851,-4300,8797,
-6423,4133,-1776,-1387,1458,8071,-2281,4709,-1463,2854,-5961,3141,-6839,-1760,2234,-3645,
-6158,3527,7879,3330,3277,4812,8454,2272,2158,347,-6051,3373,5049,-3131,-8202,-102,
573,-2937,353,-878,347,8691,-1773,1844,-1615,65,3037,-652,-3848,2408,-3724,-1001,
-560,1105,-1193,2513,-6433,868,-515,-4835,2420,-4703,6222,1481,1821,-1453,-2533,-3529,
-6405,1248,-1093,2704,5048,3162,2662,5121,-4564,-4644,4262,1063,-1230,183,475,-1225,
-3125,4594,1309,1220,-3972,6053,-120,-1867,-1085,-4785,1745,931,-4675,1488,-1907,3743,
-3432,7067,9287,-4104,11009,7636,5838,10880,-2082,-3,7731,1279,-15686,-2561,-6218,11633,
-3026,1411,7395,2107,-2767,-2741,5450,273,4956,-1287,-3475,-4665,-5400,2207,4378,5004,
-2443,-1547,-11967,-1357,-9691,5009,2308,122,-614,2350,1889,1154,-1049,-5486,1446,-74,
9629,3800,-3069,-3701,-5377,4156,3843,21399,-8719,937,-8508,-10420,10844,-4647,-1035,-2150,
-6380,-2233,417,1709,1308,-371,-4531,-4263,-658,2546,13078,4511,-6395,-3570,1339,242,
-2962,-2268,-1743,6352,-1648,-5857,5275,-7429,740,-3389,7324,2927,-2514,-79,0,-495,
2201,4385,-1027,-849,589,1803,4249,8799,1573,5395,-3523,-2742,3991,-3003,2277,-3955,
-73,1737,-9976,2140,-1671,4503,2744,-5545,3701,6062,-2896,9702,-4047,-69,1298,3192,
-2277,835,2186,581,6950,-894,2768,9557,4353,-3427,15104,7126,-10319,1058,-5427,7434,
6756,3454,-4204,-4967,-3923,-1983,-6232,2795,4149,-1477,-4481,-7248,-1262,1278,-1270,1633,
1278,-822,-1175,2810,-2388,-4083,4189,-3341,3160,1392,4780,-288,-1154,2791,6506,-6095,
-1519,1764,-1765,-1084,-12460,749,3611,11876,-1392,2586,-3450,1182,8264,-3618,-3539,6401,
1206,2093,-2065,539,-2158,2857,-2537,-6791,1455,-3481,4524,2677,-3132,-1416,-439,1584,
-3644,-660,3052,-543,-2456,3578,-5867,-7757,-1757,1689,2498,-1951,146,-4289,-2632,619,
-3739,5036,-5134,-6883,-6332,-5436,10801,4026,2453,1676,929,-618,0,-3213,5479,-479,
-3040,-3640,-9323,2002,-6857,-527,4122,-5267,7351,-2938,485,-885,-607,3791,-1162,-4779,
-9009,2946,-4580,3705,9800,-6248,712,2909,829,-2956,6706,-2479,8670,-1493,-2459,-3317,
8698,-8835,-3195,-2962,4762,-1917,-12883,668,-4880,-2744,-10874,1083,10072,-3350,-27,-1996,
1212,-1146,-4857,2378,-2006,-5500,-3580,-6105,-3076,554,-6479,1974,-2450,3207,-386,-84,
5709,14162,2404,-4662,-2354,-3654,-7274,-3725,-5993,3022,-4552,696,-3210,7008,-7637,-5495,
71,-7343,-4539,5600,-1855,-54,2108,-1442,2272,-5044,1153,7341,-4579,-3096,1792,-642,
678,-6852,-5641,780,345,66,32,-3119,4488,-2123,4355,4024,-6591,-526,-1645,7863,
-2436,-1982,-1297,-259,-4348,1993,1516,-1998,4078,4026,321,-4915,1102,3597,-2533,542,
429,1690,2515,7013,-3495,-6202,5245,-4334,-332,1785,2896,-2473,-3414,3969,2294,5123,
7036,-7733,-6961,1903,-5219,3735,-6527,-7057,4369,520,-6493,-5942,3697,-1445,3204,4932,
10048,-6440,3889,-1772,-2799,3857,-4715,-3730,1162,-2434,192,4301,11095,-3013,5234,-4273,
-928,4349,-1926,288,3451,-3708,4145,-3095,5900,-1509,985,-1173,-7247,4036,493,200,
-644,1285,-2565,475,-209,-5346,-5511,-1176,-7465,-2309,-10325,-3398,-6701,6139,-2003,-7203,
3750,2796,2945,4030,2570,-4159,-1938,-5961,8566,-702,8462,-6141,2000,1476,4999,-1679,
-1176,2623,3539,-4576,-1834,-441,5222,-2388,7291,-2862,6023,3696,1177,961,3866,9894,
-1711,4293,-2335,-11,556,-7453,1703,2532,764,3012,-5711,-4713,-6224,2674,-4709,-1003,
-2553,-4367,-6910,3522,3796,-4204,2389,-714,3647,-904,-1221,7104,-1691,-2802,5393,-1263,
3468,-10850,3439,-3827,4916,-4164,8109,-4411,4754,-3297,12710,-11085,-3786,-11,-4591,2647,
1464,-914,4289,-15,3466,-1339,2791,-921,-965,-1079,1028,2731,4067,1152,9020,-4785,
-276,2874,-3067,496,2042,-2449,4840,-3989,5187,3087,-300,4473,-5091,3093,-5035,6798,
587,-6593,-7223,-3887,-3719,599,813,-2870,-2493,4240,-3056,6511,848,8843,-4703,-96,
2579,202,2253,3723,5655,500,2107,-55,-2072,934,1976,1887,7658,4721,759,-96,
-920,-1241,3984,3222,8349,-1236,3659,-1168,3610,-2244,-3065,590,-2464,699,-1665,-639,
-230,-356,-433,4053,-2904,-3279,-6648,-6124,-750,995,-3333,-825,-2158,2473,-5071,-1263,
89,-2383,-8465,-618,-497,-2202,-2484,324,-1851,-1465,1175,2066,-3021,1216,-3826,1244,
2313,-3590,-2741,-3347,1669,-5491,-191,-837,-8511,2618,2211,-1667,650,2296,-999,-3291,
-10935,-1309,137,-5,-2513,3821,-7984,3654,1338,-2392,-7271,598,5362,9156,-907,-9113,
3430,-5662,2740,-1679,6708,-655,-7427,3369,-6967,464,687,1866,1549,1888,3727,-2483,
-376,-6513,2364,-2496,11072,2001,-1994,-4964,-2676,-1485,-2339,-5318,6922,-1462,3103,701,
-1213,-1090,-2260,3468,-8603,1170,-8402,2520,5703,4289,6954,1884,4357,-3497,6235,-2443,
-3687,-5295,961,-2009,-11811,4983,-2446,-3092,8693,-4406,4013,-4049,2814,4404,765,409,
2711,499,5457,3343,8206,-2422,1248,-1552,787,-351,612,5245,-2280,-7773,2187,673,
661,-119,1212,3313,-1252,-2646,-1641,1685,-10240,1254,3708,1986,1322,3991,1618,-3747,
-3576,292,-333,5146,1862,-4324,-6133,-1933,12462,-1211,712,4979,-714,6129,4528,2523,
-2019,2318,5948,5821,-8448,-4953,-807,-4448,10819,-473,-1730,2188,-1802,-3396,491,2483,
-1923,-454,-2012,2421,3290,-1997,1749,2082,-13789,-3437,-2068,4179,1315,1301,-2635,-4214,
10271,-5241,-49,101,7918,3433,10478,6802,5761,2723,146,-889,5573,4888,3621,-2946,
-4444,985,6929,2626,-4118,571,-4092,3161,-229,-3465,3146,6717,-4458,-1178,-3940,-3557,
-3509,-4430,4654,-1077,-1456,-194,-2358,662,1263,5254,8830,1155,-2992,-1384,-3455,-812,
-4391,-574,-2136,-2944,-1720,-2849,-953,4192,-2037,-943,1480,-1070,-213,-3888,1606,2394,
-3531,1628,3198,-2163,763,22,753,4306,-14897,-4553,1723,-1803,2250,2090,-1561,-5960,
-3778,6626,4350,1412,-7349,309,-4004,10583,-595,-4775,888,8302,-738,-7945,3237,3560,
158,323,3033,45,-3845,-1232,-4002,-8580,1642,-1405,-5447,-1096,3478,-3402,1090,788,
-640,2915,-956,-751,-1369,-1310,3093,400,-4378,-126,-2568,10111,1270,4071,2108,-4081,
-1215,1623,-3891,-2405,-2304,-5762,6496,-4459,7712,804,-396,-1443,1030,1673,4737,-1192,
-3950,922,3924,-4892,-5059,-2830,1433,6826,1830,-6417,-1491,3900,-1697,-6721,3857,3649,
539,2979,1246,848,-1313,7277,-1538,5338,-758,-2546,-1447,1020,-2719,441,-1064,2214,
590,-377,-2874,-2288,-2333,1449,3137,-3459,4092,-33,-3440,485,-1611,-1031,1120,-5178,
3923,5691,-847,-1790,3227,4241,-4615,3565,-4679,-62,918,310,-3270,3019,-1905,-4258,
2663,1569,640,-5004,-6322,-1207,-12565,1014,5372,1987,-4737,849,-2417,-10207,3162,1775,
};


short int Layer3_im1[6*6*8*4] __attribute__ ((aligned (1024)))={
//im4
3638,0,93,0,5,744,0,1771,
8794,0,0,2020,0,1496,0,7977,
7659,2558,0,4579,3898,1839,1077,7202,
2014,272,35,345,893,629,474,949,
4713,106,0,2046,274,342,0,3261,
3476,888,0,2055,2220,219,0,1976,
5921,0,0,0,0,2869,0,7602,
6295,8643,4410,5845,3155,4601,1886,11908,
3744,6062,4900,5473,6013,2577,6636,9375,
3913,154,611,0,842,2113,859,3706,
6060,4719,0,6087,3043,2857,0,9776,
4505,2685,0,3587,6257,885,3810,4981,
5008,5108,5483,1211,0,5396,0,11607,
10175,7179,2705,6201,5683,4580,3165,14208,
10234,36,0,2682,4182,2808,1363,8450,
9559,3217,759,1551,0,5811,0,11123,
6481,7316,3224,6813,6231,4988,4257,12919,
4512,2658,2835,3224,6720,574,5117,4971,
0,6233,9303,0,0,4393,0,7667,
0,6768,11596,826,913,4804,3613,10124,
28,7035,10921,1059,593,5369,3783,9034,
3999,5627,8174,2358,0,5305,0,13055,
4371,8473,3338,6479,7023,3191,6177,12867,
509,1155,2517,316,3588,0,4198,2291,
0,639,449,0,5,303,0,247,
0,1016,645,77,351,127,1004,765,
3435,0,1669,0,248,2945,381,4095,
4041,7984,4381,5621,2362,4485,1298,12157,
3703,5996,3651,5889,6954,1536,6761,9296,
0,0,206,0,244,0,283,35,
0,0,93,0,5,9,0,0,
0,0,93,0,5,9,0,0,
0,2917,4884,0,0,3430,0,3138,
0,6601,8052,3549,3765,4457,5459,7249,
670,1825,3462,741,4508,0,5414,3050,
0,0,93,0,5,9,0,0,

//im5
181,0,93,0,5,62,0,38,
6108,0,0,183,0,1423,0,5474,
10129,0,0,2629,460,2127,0,8043,
7913,2691,625,2780,1753,3129,0,7762,
4071,2247,1564,2307,2297,2178,1382,3827,
233,69,272,44,254,81,204,96,
518,0,399,0,5,278,0,187,
4047,3655,3590,0,0,4733,0,9346,
5460,7385,6077,4826,3724,5425,2616,13037,
1529,7085,9237,2881,3255,4542,4374,8642,
45,2485,4216,984,2703,395,3906,3089,
0,0,205,0,160,0,164,30,
0,298,530,0,5,326,0,146,
0,4556,5983,0,0,4385,0,7478,
9470,4528,8792,3228,3412,3532,202,11231,
8851,2007,1235,4226,3961,2197,0,9806,
3912,1070,93,2198,3063,500,339,2051,
0,0,93,0,5,9,0,0,
0,0,93,0,5,9,0,0,
0,2408,1817,0,5,1281,0,1155,
1101,4117,6690,0,0,3153,0,7039,
5910,4148,5683,4679,3939,2855,1478,10238,
5105,2871,164,3599,6106,508,3437,5421,
0,0,93,0,5,9,0,0,
739,0,93,0,5,267,0,303,
7061,0,0,657,0,823,0,4557,
9505,2644,0,1031,0,3922,0,9270,
5298,7292,4869,5784,5050,5004,4610,10588,
3146,2973,3262,3225,6231,693,5167,5139,
0,0,93,0,5,9,0,0,
0,326,936,0,5,566,0,286,
0,2411,6415,0,0,3484,0,5504,
430,7879,10074,1810,0,5904,70,9479,
0,7410,8959,3141,4502,3474,6058,8254,
0,402,1668,0,2152,0,2770,1109,
0,0,93,0,5,9,0,0,

//im1
0,0,93,0,5,9,0,0,
546,0,93,0,5,174,0,211,
5655,0,0,264,0,2064,0,6794,
7140,2593,0,4846,4723,1264,1473,7683,
710,208,93,308,726,264,262,367,
0,0,93,0,5,9,0,0,
0,0,93,0,5,9,0,0,
714,0,291,0,5,685,0,659,
2700,4461,2077,1553,0,3796,0,9765,
4908,5849,1273,6078,6393,1611,5062,10187,
378,252,497,52,826,170,742,384,
0,0,93,0,5,9,0,0,
0,0,93,0,5,9,0,0,
3014,0,222,0,0,1890,0,2697,
6150,5301,969,4665,0,3996,0,12108,
5890,5186,216,6148,6930,664,4115,9174,
0,0,130,0,118,9,114,0,
0,0,93,0,5,9,0,0,
0,0,93,0,5,9,0,0,
811,763,2496,0,0,3274,0,3232,
4231,6544,4005,5134,701,4859,0,12673,
5118,5044,1430,5664,7784,775,5242,8770,
0,0,93,0,5,9,0,0,
0,0,93,0,5,9,0,0,
0,0,93,0,5,9,0,0,
1159,670,2207,0,5,2701,0,2589,
3617,6013,4347,5279,1665,4190,1131,11088,
4462,3898,1944,4312,7305,640,5570,6892,
0,0,93,0,5,9,0,0,
0,0,93,0,5,9,0,0,
0,0,93,0,5,9,0,0,
0,1457,2543,0,5,1871,0,1177,
0,4408,5672,2862,1719,3307,2872,6501,
1244,1984,3245,1266,4367,26,4634,3400,
0,0,93,0,5,9,0,0,
0,0,93,0,5,9,0,0,

//im5
181,0,93,0,5,62,0,38,
6108,0,0,183,0,1423,0,5474,
10129,0,0,2629,460,2127,0,8043,
7913,2691,625,2780,1753,3129,0,7762,
4071,2247,1564,2307,2297,2178,1382,3827,
233,69,272,44,254,81,204,96,
518,0,399,0,5,278,0,187,
4047,3655,3590,0,0,4733,0,9346,
5460,7385,6077,4826,3724,5425,2616,13037,
1529,7085,9237,2881,3255,4542,4374,8642,
45,2485,4216,984,2703,395,3906,3089,
0,0,205,0,160,0,164,30,
0,298,530,0,5,326,0,146,
0,4556,5983,0,0,4385,0,7478,
9470,4528,8792,3228,3412,3532,202,11231,
8851,2007,1235,4226,3961,2197,0,9806,
3912,1070,93,2198,3063,500,339,2051,
0,0,93,0,5,9,0,0,
0,0,93,0,5,9,0,0,
0,2408,1817,0,5,1281,0,1155,
1101,4117,6690,0,0,3153,0,7039,
5910,4148,5683,4679,3939,2855,1478,10238,
5105,2871,164,3599,6106,508,3437,5421,
0,0,93,0,5,9,0,0,
739,0,93,0,5,267,0,303,
7061,0,0,657,0,823,0,4557,
9505,2644,0,1031,0,3922,0,9270,
5298,7292,4869,5784,5050,5004,4610,10588,
3146,2973,3262,3225,6231,693,5167,5139,
0,0,93,0,5,9,0,0,
0,326,936,0,5,566,0,286,
0,2411,6415,0,0,3484,0,5504,
430,7879,10074,1810,0,5904,70,9479,
0,7410,8959,3141,4502,3474,6058,8254,
0,402,1668,0,2152,0,2770,1109,
0,0,93,0,5,9,0,0,
};

short int qc1_wb[3*3*4+4] __attribute__ ((aligned (64))) ={
//kernel
12113, 18457, -4933,  5798,
13981, 15308,  6558,  9695,
 8357, 17975, 12171, 12639,
25410, 14681,  1434, -2748,
32049, 18989, 17957, -3341,
23994,  5047, 23435,  -525,
21126, 10772, 14893, -6605,
23717,  5726, 13344, -8487,
18595, -3929, 23062, -7805,

//bias
439,    83,   444, 27602,
};

short int qc2_wb[3*3*4*8+8] __attribute__ ((aligned (64))) ={
-1904,3743,8118,-2916,9633,-2689,12514,9117,
-1544,-2855,-2368,-4357,7609,-8047,11141,-3667,
1508,274,11749,8632,9259,-6800,11007,8531,
913,-2874,3024,-7581,-3050,182,-6336,402,
-7855,9787,2306,7098,530,581,7389,9196,
-4775,5915,202,3845,2443,-1275,7799,5447,
-5920,8811,10188,7335,592,4695,-3448,2491,
3410,-103,-1830,-1962,-948,-5500,-537,4764,
-7828,10146,11784,-5502,-13666,11273,-8249,3938,
-4541,7830,-2084,2226,-10042,-1158,-787,1369,
-6212,8422,5789,-6810,-4087,2615,-2592,3730,
-835,-4686,875,-1029,485,2575,909,-1444,
12008,10346,7787,2704,11252,8286,7556,2772,
-122,107,10242,2334,5003,6357,7807,4013,
3352,2860,5026,10118,7362,991,3581,10988,
3684,2577,11940,-9006,-4873,2738,235,-142,
-1585,4430,14660,7005,-4034,6627,-7881,10066,
-2862,7424,9055,-361,-5765,5724,22,6555,
2311,-1210,4272,-3728,-7043,1776,-6565,9619,
-210,-3559,8774,-5587,-1345,352,-500,-4672,
-1718,-1473,6850,-5806,-4916,4779,-5483,3878,
-5645,3110,7113,-5510,-4490,6958,-1994,6717,
1982,-1718,7728,-5680,18,1471,-4974,-860,
-1082,-3125,4063,-2760,5077,1790,-6899,-617,
14619,32,-18434,6775,9318,-2995,-3128,4124,
4947,-1334,-10799,4341,5871,7393,3128,5395,
8181,7537,-13378,8296,5634,-5024,-3617,5559,
2918,411,6124,43,2652,3193,540,-1655,
13646,-2103,-20940,2200,-3607,-4211,-12482,5271,
9379,-1650,-5724,2683,-2346,686,-6398,3249,
2063,-4161,-5127,4156,-2515,-8011,-2238,2674,
8661,-1939,2609,-1760,-3115,-3070,729,-5360,
16123,-6792,-11710,627,-3863,1249,-7268,8008,
10507,-8420,-4982,-4597,-3479,-851,-344,3774,
10802,-7477,-4147,961,49,6024,-4407,4767,
1217,-3719,4177,-5689,-1386,-4266,-1040,-4469,

//bias
-16124,-2563,14704,-23970,8371,6227,-7779,-14210
};

short int qc2_b[8]={
-16124,-2563,14704,-23970,8371,6227,-7779,-14210
};

unsigned char Layer1_im[28*28*6] __attribute__((aligned (1024)))={

//im1
0,0,0,0,0,0,0,0,0,0,0,0,0,0,0,0,0,0,0,0,0,0,0,0,0,0,0,0,
0,0,0,0,0,0,0,0,0,0,0,0,0,0,0,0,0,0,0,0,0,0,0,0,0,0,0,0,
0,0,0,0,0,0,0,0,0,0,0,0,0,0,0,0,0,0,0,0,0,0,0,0,0,0,0,0,
0,0,0,0,0,0,0,0,0,0,0,0,0,0,0,0,0,0,0,0,0,0,0,0,0,0,0,0,
0,0,0,0,0,0,0,0,0,0,0,0,0,0,0,0,0,0,0,0,0,0,0,0,0,0,0,0,
0,0,0,0,0,0,0,0,0,0,0,0,0,0,169,207,33,0,0,0,0,0,0,0,0,0,0,0,
0,0,0,0,0,0,0,0,0,0,0,0,0,0,168,254,105,0,0,0,0,0,0,0,0,0,0,0,
0,0,0,0,0,0,0,0,0,0,0,0,0,84,249,254,105,0,0,0,0,0,0,0,0,0,0,0,
0,0,0,0,0,0,0,0,0,0,0,0,0,89,254,254,105,0,0,0,0,0,0,0,0,0,0,0,
0,0,0,0,0,0,0,0,0,0,0,0,0,89,254,193,14,0,0,0,0,0,0,0,0,0,0,0,
0,0,0,0,0,0,0,0,0,0,0,0,0,89,254,184,0,0,0,0,0,0,0,0,0,0,0,0,
0,0,0,0,0,0,0,0,0,0,0,0,7,204,254,184,0,0,0,0,0,0,0,0,0,0,0,0,
0,0,0,0,0,0,0,0,0,0,0,0,0,89,254,184,0,0,0,0,0,0,0,0,0,0,0,0,
0,0,0,0,0,0,0,0,0,0,0,0,13,209,254,178,0,0,0,0,0,0,0,0,0,0,0,0,
0,0,0,0,0,0,0,0,0,0,0,37,209,254,254,69,0,0,0,0,0,0,0,0,0,0,0,0,
0,0,0,0,0,0,0,0,0,0,0,107,254,254,254,184,0,0,0,0,0,0,0,0,0,0,0,0,
0,0,0,0,0,0,0,0,0,0,0,3,187,254,254,134,0,0,0,0,0,0,0,0,0,0,0,0,
0,0,0,0,0,0,0,0,0,0,0,0,185,254,155,3,0,0,0,0,0,0,0,0,0,0,0,0,
0,0,0,0,0,0,0,0,0,0,0,0,185,254,238,7,0,0,0,0,0,0,0,0,0,0,0,0,
0,0,0,0,0,0,0,0,0,0,0,0,185,254,254,8,0,0,0,0,0,0,0,0,0,0,0,0,
0,0,0,0,0,0,0,0,0,0,0,0,185,254,231,7,0,0,0,0,0,0,0,0,0,0,0,0,
0,0,0,0,0,0,0,0,0,0,0,0,185,255,87,0,0,0,0,0,0,0,0,0,0,0,0,0,
0,0,0,0,0,0,0,0,0,0,0,0,173,254,87,0,0,0,0,0,0,0,0,0,0,0,0,0,
0,0,0,0,0,0,0,0,0,0,0,0,9,254,87,0,0,0,0,0,0,0,0,0,0,0,0,0,
0,0,0,0,0,0,0,0,0,0,0,0,9,254,87,0,0,0,0,0,0,0,0,0,0,0,0,0,
0,0,0,0,0,0,0,0,0,0,0,0,0,0,0,0,0,0,0,0,0,0,0,0,0,0,0,0,
0,0,0,0,0,0,0,0,0,0,0,0,0,0,0,0,0,0,0,0,0,0,0,0,0,0,0,0,
0,0,0,0,0,0,0,0,0,0,0,0,0,0,0,0,0,0,0,0,0,0,0,0,0,0,0,0,

//im8
0,0,0,0,0,0,0,0,0,0,0,0,0,0,0,0,0,0,0,0,0,0,0,0,0,0,0,0,
0,0,0,0,0,0,0,0,0,0,0,0,0,0,0,0,0,0,0,0,0,0,0,0,0,0,0,0,
0,0,0,0,0,0,0,0,0,0,0,0,0,0,0,0,0,0,0,0,0,0,0,0,0,0,0,0,
0,0,0,0,0,0,0,0,0,0,0,0,0,0,0,0,0,0,0,0,0,0,0,0,0,0,0,0,
0,0,0,0,0,0,0,0,0,0,0,0,0,0,0,0,0,0,0,0,0,0,0,0,0,0,0,0,
0,0,0,0,0,0,0,0,0,0,0,0,0,0,0,0,0,0,0,0,0,0,0,0,0,0,0,0,
0,0,0,0,0,0,0,0,0,26,121,121,121,190,255,253,253,253,253,253,232,44,0,0,0,0,0,0,
0,0,0,0,0,0,0,132,240,242,252,252,252,252,253,252,252,252,252,252,252,93,0,0,0,0,0,0,
0,0,0,0,0,0,85,248,252,252,252,252,252,252,159,158,193,252,252,252,216,10,0,0,0,0,0,0,
0,0,0,0,0,0,64,240,252,252,176,39,39,39,0,0,15,107,252,252,182,30,0,0,0,0,0,0,
0,0,0,0,0,0,0,213,252,252,195,25,0,0,0,0,110,216,252,174,25,20,0,0,0,0,0,0,
0,0,0,0,0,0,0,56,213,252,252,196,51,0,26,180,245,252,238,52,0,0,0,0,0,0,0,0,
0,0,0,0,0,0,0,0,109,252,252,252,248,173,211,252,252,239,86,0,0,0,0,0,0,0,0,0,
0,0,0,0,0,0,0,0,25,196,252,252,252,252,253,252,242,153,0,0,0,0,0,0,0,0,0,0,
0,0,0,0,0,0,0,0,0,23,127,247,252,252,253,252,163,3,0,0,0,0,0,0,0,0,0,0,
0,0,0,0,0,0,0,0,0,0,0,90,252,252,253,252,252,110,0,0,0,0,0,0,0,0,0,0,
0,0,0,0,0,0,0,0,0,0,20,204,253,253,255,253,253,173,0,0,0,0,0,0,0,0,0,0,
0,0,0,0,0,0,0,0,0,0,97,252,252,195,146,247,252,206,23,0,0,0,0,0,0,0,0,0,
0,0,0,0,0,0,0,0,0,49,244,252,240,12,0,81,242,252,102,0,0,0,0,0,0,0,0,0,
0,0,0,0,0,0,0,0,0,166,252,252,126,0,0,0,226,252,242,56,0,0,0,0,0,0,0,0,
0,0,0,0,0,0,0,0,53,238,252,252,106,0,0,0,122,252,252,66,0,0,0,0,0,0,0,0,
0,0,0,0,0,0,0,0,53,238,252,252,106,0,0,0,94,252,252,66,0,0,0,0,0,0,0,0,
0,0,0,0,0,0,0,0,0,186,252,252,127,0,0,39,189,252,241,56,0,0,0,0,0,0,0,0,
0,0,0,0,0,0,0,0,0,103,252,252,247,160,161,247,252,252,171,0,0,0,0,0,0,0,0,0,
0,0,0,0,0,0,0,0,0,23,197,247,252,252,253,252,247,196,22,0,0,0,0,0,0,0,0,0,
0,0,0,0,0,0,0,0,0,0,0,76,126,252,253,126,75,0,0,0,0,0,0,0,0,0,0,0,
0,0,0,0,0,0,0,0,0,0,0,0,0,0,0,0,0,0,0,0,0,0,0,0,0,0,0,0,
0,0,0,0,0,0,0,0,0,0,0,0,0,0,0,0,0,0,0,0,0,0,0,0,0,0,0,0,

//im5
0,0,0,0,0,0,0,0,0,0,0,0,0,0,0,0,0,0,0,0,0,0,0,0,0,0,0,0,
0,0,0,0,0,0,0,0,0,0,0,0,0,0,0,0,0,0,0,0,0,0,0,0,0,0,0,0,
0,0,0,0,0,0,0,0,0,0,0,0,0,0,0,0,0,0,0,0,0,0,0,0,0,0,0,0,
0,0,0,0,0,0,0,0,0,0,0,0,0,0,0,0,0,0,0,0,0,0,0,0,0,0,0,0,
0,0,0,0,0,0,0,0,0,0,0,0,0,0,0,0,0,0,0,0,0,0,0,0,0,0,0,0,
0,0,0,0,0,0,0,0,0,0,131,55,0,0,0,43,43,43,69,148,62,0,0,0,0,0,0,0,
0,0,0,0,0,0,0,0,0,0,148,168,0,22,173,253,252,252,231,124,27,0,0,0,0,0,0,0,
0,0,0,0,0,0,0,0,0,0,201,246,144,237,252,241,196,73,16,0,0,0,0,0,0,0,0,0,
0,0,0,0,0,0,0,0,0,0,253,252,252,236,101,35,0,0,0,0,0,0,0,0,0,0,0,0,
0,0,0,0,0,0,0,0,0,89,253,252,146,31,0,0,0,0,0,0,0,0,0,0,0,0,0,0,
0,0,0,0,0,0,0,0,0,107,255,183,4,0,0,0,0,0,0,0,0,0,0,0,0,0,0,0,
0,0,0,0,0,0,0,0,0,27,253,252,135,0,0,0,0,0,0,0,0,0,0,0,0,0,0,0,
0,0,0,0,0,0,0,0,0,0,144,247,251,206,83,9,0,0,0,0,0,0,0,0,0,0,0,0,
0,0,0,0,0,0,0,0,0,0,0,99,194,252,252,204,69,0,0,0,0,0,0,0,0,0,0,0,
0,0,0,0,0,0,0,0,0,0,0,0,4,113,235,253,239,62,0,0,0,0,0,0,0,0,0,0,
0,0,0,0,0,0,0,0,0,0,0,0,0,0,45,193,253,232,0,0,0,0,0,0,0,0,0,0,
0,0,0,0,0,0,0,0,0,0,0,0,0,0,0,37,205,247,63,0,0,0,0,0,0,0,0,0,
0,0,0,0,0,0,0,0,0,0,0,0,0,0,0,0,94,252,180,0,0,0,0,0,0,0,0,0,
0,0,0,0,0,0,0,0,0,0,0,0,0,0,0,0,85,252,189,0,0,0,0,0,0,0,0,0,
0,0,0,0,0,0,0,0,0,0,0,0,0,0,0,0,128,252,189,0,0,0,0,0,0,0,0,0,
0,0,0,0,0,0,0,0,0,0,0,0,0,0,0,43,227,250,70,0,0,0,0,0,0,0,0,0,
0,0,0,0,0,0,0,0,0,0,0,0,0,0,36,227,252,196,0,0,0,0,0,0,0,0,0,0,
0,0,0,0,0,0,0,0,0,107,18,8,31,127,223,253,245,72,0,0,0,0,0,0,0,0,0,0,
0,0,0,0,0,0,0,0,0,185,239,197,252,252,252,199,56,0,0,0,0,0,0,0,0,0,0,0,
0,0,0,0,0,0,0,0,0,18,209,252,252,182,103,18,0,0,0,0,0,0,0,0,0,0,0,0,
0,0,0,0,0,0,0,0,0,0,0,0,0,0,0,0,0,0,0,0,0,0,0,0,0,0,0,0,
0,0,0,0,0,0,0,0,0,0,0,0,0,0,0,0,0,0,0,0,0,0,0,0,0,0,0,0,
0,0,0,0,0,0,0,0,0,0,0,0,0,0,0,0,0,0,0,0,0,0,0,0,0,0,0,0,

//im4
0,0,0,0,0,0,0,0,0,0,0,0,0,0,0,0,0,0,0,0,0,0,0,0,0,0,0,0,
0,0,0,0,0,0,0,0,0,0,0,0,0,0,0,0,0,0,0,0,0,0,0,0,0,0,0,0,
0,0,0,0,0,0,0,0,0,0,0,0,0,0,0,0,0,0,0,0,0,0,0,0,0,0,0,0,
0,0,0,0,0,0,0,0,0,0,0,0,0,0,0,0,0,0,0,0,0,0,0,0,0,0,0,0,
0,0,0,0,0,0,0,0,0,0,0,0,0,0,0,0,0,0,0,0,0,0,0,0,0,0,0,0,
0,0,0,0,0,0,0,0,0,0,0,136,65,0,0,0,0,0,0,0,0,0,0,0,0,0,0,0,
0,0,0,0,0,0,0,0,0,179,242,250,163,11,0,0,0,0,0,0,0,83,16,0,0,0,0,0,
0,0,0,0,0,0,0,0,79,224,254,166,98,0,0,0,0,0,0,0,37,250,97,0,0,0,0,0,
0,0,0,0,0,0,0,31,246,254,254,81,46,0,0,0,0,0,0,0,41,245,113,0,0,0,0,0,
0,0,0,0,0,0,5,150,254,239,191,4,0,0,0,0,0,0,0,0,120,254,143,0,0,0,0,0,
0,0,0,0,0,0,150,254,254,156,46,1,0,0,0,0,0,0,0,21,233,254,62,0,0,0,0,0,
0,0,0,0,0,22,237,254,247,73,0,0,0,0,0,0,0,0,0,54,254,245,42,0,0,0,0,0,
0,0,0,0,0,208,254,254,150,0,0,0,0,0,0,0,0,0,0,167,254,245,90,0,0,0,0,0,
0,0,0,0,0,242,254,234,23,0,0,0,0,0,0,0,21,40,83,245,254,254,127,0,0,0,0,0,
0,0,0,0,0,242,255,250,153,134,196,167,186,208,208,224,235,244,254,254,194,206,40,0,0,0,0,0,
0,0,0,0,0,118,245,218,254,254,254,254,254,254,240,234,190,130,254,254,161,89,0,0,0,0,0,0,
0,0,0,0,0,0,41,93,218,237,114,58,58,58,31,21,0,35,250,254,125,0,0,0,0,0,0,0,
0,0,0,0,0,0,0,0,0,0,0,0,0,0,0,0,0,83,254,254,60,0,0,0,0,0,0,0,
0,0,0,0,0,0,0,0,0,0,0,0,0,0,0,0,2,197,254,237,24,0,0,0,0,0,0,0,
0,0,0,0,0,0,0,0,0,0,0,0,0,0,0,0,92,254,254,201,0,0,0,0,0,0,0,0,
0,0,0,0,0,0,0,0,0,0,0,0,0,0,0,4,191,254,254,100,0,0,0,0,0,0,0,0,
0,0,0,0,0,0,0,0,0,0,0,0,0,0,0,64,254,254,182,3,0,0,0,0,0,0,0,0,
0,0,0,0,0,0,0,0,0,0,0,0,0,0,0,118,254,226,23,0,0,0,0,0,0,0,0,0,
0,0,0,0,0,0,0,0,0,0,0,0,0,0,0,197,250,217,5,0,0,0,0,0,0,0,0,0,
0,0,0,0,0,0,0,0,0,0,0,0,0,0,0,134,160,27,0,0,0,0,0,0,0,0,0,0,
0,0,0,0,0,0,0,0,0,0,0,0,0,0,0,0,0,0,0,0,0,0,0,0,0,0,0,0,
0,0,0,0,0,0,0,0,0,0,0,0,0,0,0,0,0,0,0,0,0,0,0,0,0,0,0,0,
0,0,0,0,0,0,0,0,0,0,0,0,0,0,0,0,0,0,0,0,0,0,0,0,0,0,0,0,

//im8
0,0,0,0,0,0,0,0,0,0,0,0,0,0,0,0,0,0,0,0,0,0,0,0,0,0,0,0,
0,0,0,0,0,0,0,0,0,0,0,0,0,0,0,0,0,0,0,0,0,0,0,0,0,0,0,0,
0,0,0,0,0,0,0,0,0,0,0,0,0,0,0,0,0,0,0,0,0,0,0,0,0,0,0,0,
0,0,0,0,0,0,0,0,0,0,0,0,0,0,0,0,0,0,0,0,0,0,0,0,0,0,0,0,
0,0,0,0,0,0,0,0,0,0,0,0,0,0,0,0,0,0,0,0,0,0,0,0,0,0,0,0,
0,0,0,0,0,0,0,0,0,0,0,0,0,0,0,0,0,0,0,0,0,0,0,0,0,0,0,0,
0,0,0,0,0,0,0,0,0,26,121,121,121,190,255,253,253,253,253,253,232,44,0,0,0,0,0,0,
0,0,0,0,0,0,0,132,240,242,252,252,252,252,253,252,252,252,252,252,252,93,0,0,0,0,0,0,
0,0,0,0,0,0,85,248,252,252,252,252,252,252,159,158,193,252,252,252,216,10,0,0,0,0,0,0,
0,0,0,0,0,0,64,240,252,252,176,39,39,39,0,0,15,107,252,252,182,30,0,0,0,0,0,0,
0,0,0,0,0,0,0,213,252,252,195,25,0,0,0,0,110,216,252,174,25,20,0,0,0,0,0,0,
0,0,0,0,0,0,0,56,213,252,252,196,51,0,26,180,245,252,238,52,0,0,0,0,0,0,0,0,
0,0,0,0,0,0,0,0,109,252,252,252,248,173,211,252,252,239,86,0,0,0,0,0,0,0,0,0,
0,0,0,0,0,0,0,0,25,196,252,252,252,252,253,252,242,153,0,0,0,0,0,0,0,0,0,0,
0,0,0,0,0,0,0,0,0,23,127,247,252,252,253,252,163,3,0,0,0,0,0,0,0,0,0,0,
0,0,0,0,0,0,0,0,0,0,0,90,252,252,253,252,252,110,0,0,0,0,0,0,0,0,0,0,
0,0,0,0,0,0,0,0,0,0,20,204,253,253,255,253,253,173,0,0,0,0,0,0,0,0,0,0,
0,0,0,0,0,0,0,0,0,0,97,252,252,195,146,247,252,206,23,0,0,0,0,0,0,0,0,0,
0,0,0,0,0,0,0,0,0,49,244,252,240,12,0,81,242,252,102,0,0,0,0,0,0,0,0,0,
0,0,0,0,0,0,0,0,0,166,252,252,126,0,0,0,226,252,242,56,0,0,0,0,0,0,0,0,
0,0,0,0,0,0,0,0,53,238,252,252,106,0,0,0,122,252,252,66,0,0,0,0,0,0,0,0,
0,0,0,0,0,0,0,0,53,238,252,252,106,0,0,0,94,252,252,66,0,0,0,0,0,0,0,0,
0,0,0,0,0,0,0,0,0,186,252,252,127,0,0,39,189,252,241,56,0,0,0,0,0,0,0,0,
0,0,0,0,0,0,0,0,0,103,252,252,247,160,161,247,252,252,171,0,0,0,0,0,0,0,0,0,
0,0,0,0,0,0,0,0,0,23,197,247,252,252,253,252,247,196,22,0,0,0,0,0,0,0,0,0,
0,0,0,0,0,0,0,0,0,0,0,76,126,252,253,126,75,0,0,0,0,0,0,0,0,0,0,0,
0,0,0,0,0,0,0,0,0,0,0,0,0,0,0,0,0,0,0,0,0,0,0,0,0,0,0,0,
0,0,0,0,0,0,0,0,0,0,0,0,0,0,0,0,0,0,0,0,0,0,0,0,0,0,0,0,

//im1
0,0,0,0,0,0,0,0,0,0,0,0,0,0,0,0,0,0,0,0,0,0,0,0,0,0,0,0,
0,0,0,0,0,0,0,0,0,0,0,0,0,0,0,0,0,0,0,0,0,0,0,0,0,0,0,0,
0,0,0,0,0,0,0,0,0,0,0,0,0,0,0,0,0,0,0,0,0,0,0,0,0,0,0,0,
0,0,0,0,0,0,0,0,0,0,0,0,0,0,0,0,0,0,0,0,0,0,0,0,0,0,0,0,
0,0,0,0,0,0,0,0,0,0,0,0,0,0,0,0,0,0,0,0,0,0,0,0,0,0,0,0,
0,0,0,0,0,0,0,0,0,0,0,0,0,0,169,207,33,0,0,0,0,0,0,0,0,0,0,0,
0,0,0,0,0,0,0,0,0,0,0,0,0,0,168,254,105,0,0,0,0,0,0,0,0,0,0,0,
0,0,0,0,0,0,0,0,0,0,0,0,0,84,249,254,105,0,0,0,0,0,0,0,0,0,0,0,
0,0,0,0,0,0,0,0,0,0,0,0,0,89,254,254,105,0,0,0,0,0,0,0,0,0,0,0,
0,0,0,0,0,0,0,0,0,0,0,0,0,89,254,193,14,0,0,0,0,0,0,0,0,0,0,0,
0,0,0,0,0,0,0,0,0,0,0,0,0,89,254,184,0,0,0,0,0,0,0,0,0,0,0,0,
0,0,0,0,0,0,0,0,0,0,0,0,7,204,254,184,0,0,0,0,0,0,0,0,0,0,0,0,
0,0,0,0,0,0,0,0,0,0,0,0,0,89,254,184,0,0,0,0,0,0,0,0,0,0,0,0,
0,0,0,0,0,0,0,0,0,0,0,0,13,209,254,178,0,0,0,0,0,0,0,0,0,0,0,0,
0,0,0,0,0,0,0,0,0,0,0,37,209,254,254,69,0,0,0,0,0,0,0,0,0,0,0,0,
0,0,0,0,0,0,0,0,0,0,0,107,254,254,254,184,0,0,0,0,0,0,0,0,0,0,0,0,
0,0,0,0,0,0,0,0,0,0,0,3,187,254,254,134,0,0,0,0,0,0,0,0,0,0,0,0,
0,0,0,0,0,0,0,0,0,0,0,0,185,254,155,3,0,0,0,0,0,0,0,0,0,0,0,0,
0,0,0,0,0,0,0,0,0,0,0,0,185,254,238,7,0,0,0,0,0,0,0,0,0,0,0,0,
0,0,0,0,0,0,0,0,0,0,0,0,185,254,254,8,0,0,0,0,0,0,0,0,0,0,0,0,
0,0,0,0,0,0,0,0,0,0,0,0,185,254,231,7,0,0,0,0,0,0,0,0,0,0,0,0,
0,0,0,0,0,0,0,0,0,0,0,0,185,255,87,0,0,0,0,0,0,0,0,0,0,0,0,0,
0,0,0,0,0,0,0,0,0,0,0,0,173,254,87,0,0,0,0,0,0,0,0,0,0,0,0,0,
0,0,0,0,0,0,0,0,0,0,0,0,9,254,87,0,0,0,0,0,0,0,0,0,0,0,0,0,
0,0,0,0,0,0,0,0,0,0,0,0,9,254,87,0,0,0,0,0,0,0,0,0,0,0,0,0,
0,0,0,0,0,0,0,0,0,0,0,0,0,0,0,0,0,0,0,0,0,0,0,0,0,0,0,0,
0,0,0,0,0,0,0,0,0,0,0,0,0,0,0,0,0,0,0,0,0,0,0,0,0,0,0,0,
0,0,0,0,0,0,0,0,0,0,0,0,0,0,0,0,0,0,0,0,0,0,0,0,0,0,0,0,
};

short int Layer2_im1[13*13*4*6] __attribute__ ((aligned (1024))) ={
//im1
1,0,1,107,
1,0,1,107,
1,0,1,107,
1,0,1,107,
1,0,1,107,
1,0,1,107,
1,0,1,107,
1,0,1,107,
1,0,1,107,
1,0,1,107,
1,0,1,107,
1,0,1,107,
1,0,1,107,
1,0,1,107,
1,0,1,107,
1,0,1,107,
1,0,1,107,
1,0,1,107,
1,0,1,107,
1920,38,1717,107,
2221,702,1476,107,
171,87,121,107,
1,0,1,107,
1,0,1,107,
1,0,1,107,
1,0,1,107,
1,0,1,107,
1,0,1,107,
1,0,1,107,
1,0,1,107,
1,0,1,107,
383,0,474,107,
6831,2957,5623,0,
8151,4498,4324,0,
1292,801,395,107,
1,0,1,107,
1,0,1,107,
1,0,1,107,
1,0,1,107,
1,0,1,107,
1,0,1,107,
1,0,1,107,
1,0,1,107,
1,0,1,107,
1098,393,1261,186,
8451,4637,6180,301,
8984,5674,4661,158,
1505,1125,293,163,
1,0,1,107,
1,0,1,107,
1,0,1,107,
1,0,1,107,
1,0,1,107,
1,0,1,107,
1,0,1,107,
1,0,1,107,
1,0,1,107,
1671,415,1946,201,
8501,4635,5677,328,
7377,5302,2952,278,
399,523,1,247,
1,0,1,107,
1,0,1,107,
1,0,1,107,
1,0,1,107,
1,0,1,107,
1,0,1,107,
1,0,1,107,
1,0,1,107,
1,0,1,107,
1987,849,2347,317,
8821,5133,5496,341,
6771,4521,2408,0,
1,0,1,107,
1,0,1,107,
1,0,1,107,
1,0,1,107,
1,0,1,107,
1,0,1,107,
1,0,1,107,
1,0,1,107,
1,0,1,107,
704,0,815,107,
7000,2773,5672,0,
9977,5692,6896,0,
6058,4332,2008,137,
1,0,1,107,
1,0,1,107,
1,0,1,107,
1,0,1,107,
1,0,1,107,
1,0,1,107,
1,0,1,107,
1,0,1,107,
1,0,1,107,
717,473,740,437,
7733,3962,5701,765,
10644,6062,6504,505,
6089,4021,2061,367,
1,0,1,107,
1,0,1,107,
1,0,1,107,
1,0,1,107,
1,0,1,107,
1,0,1,107,
1,0,1,107,
1,0,1,107,
1,0,1,107,
7,13,10,117,
6326,3012,5349,315,
9839,5551,6116,268,
3463,2850,883,284,
1,0,1,107,
1,0,1,107,
1,0,1,107,
1,0,1,107,
1,0,1,107,
1,0,1,107,
1,0,1,107,
1,0,1,107,
1,0,1,107,
1,0,1,107,
6315,2991,5355,302,
9997,5782,6325,401,
3599,2663,713,185,
1,0,1,107,
1,0,1,107,
1,0,1,107,
1,0,1,107,
1,0,1,107,
1,0,1,107,
1,0,1,107,
1,0,1,107,
1,0,1,107,
1,0,1,107,
6247,2976,5316,656,
8297,5476,4498,369,
1697,1608,243,252,
1,0,1,107,
1,0,1,107,
1,0,1,107,
1,0,1,107,
1,0,1,107,
1,0,1,107,
1,0,1,107,
1,0,1,107,
1,0,1,107,
1,0,1,107,
3874,1885,3985,872,
6022,3723,3423,765,
1247,932,243,172,
1,0,1,107,
1,0,1,107,
1,0,1,107,
1,0,1,107,
1,0,1,107,
1,0,1,107,
1,0,1,107,
1,0,1,107,
1,0,1,107,
1,0,1,107,
550,1148,770,912,
1072,1470,656,990,
258,392,1,230,
1,0,1,107,
1,0,1,107,
1,0,1,107,
1,0,1,107,
1,0,1,107,

//im5
1,0,1,107,
1,0,1,107,
1,0,1,107,
1,0,1,107,
1,0,1,107,
1,0,1,107,
1,0,1,107,
1,0,1,107,
1,0,1,107,
1,0,1,107,
1,0,1,107,
1,0,1,107,
1,0,1,107,
1,0,1,107,
1,0,1,107,
1,0,1,107,
1,0,1,107,
1009,130,739,107,
995,421,657,107,
196,0,243,107,
667,132,540,107,
1294,107,1216,107,
1496,476,1083,107,
321,163,227,107,
1,0,1,107,
1,0,1,107,
1,0,1,107,
1,0,1,107,
1,0,1,107,
1,0,1,107,
4983,1669,4024,110,
5924,2839,3063,0,
6837,2126,5382,0,
8350,3766,5614,0,
6810,3615,3779,264,
3982,2614,2425,461,
525,376,121,177,
1,0,1,107,
1,0,1,107,
1,0,1,107,
1,0,1,107,
1,0,1,107,
405,0,502,107,
7713,3660,6172,56,
10173,5886,5779,355,
7988,5189,5336,1488,
7211,5407,3694,1543,
3959,4152,1268,1580,
1262,1680,7,800,
81,121,1,146,
1,0,1,107,
1,0,1,107,
1,0,1,107,
1,0,1,107,
1,0,1,107,
1008,496,1113,317,
8246,4426,5987,441,
8913,6365,4423,1193,
2927,3138,577,1205,
419,586,1,333,
1,0,1,107,
1,0,1,107,
1,0,1,107,
1,0,1,107,
1,0,1,107,
1,0,1,107,
1,0,1,107,
1,0,1,107,
378,503,474,434,
7140,3783,5245,1184,
9033,4597,4706,573,
7659,3186,4250,0,
3381,1221,2039,93,
357,181,252,107,
1,0,1,107,
1,0,1,107,
1,0,1,107,
1,0,1,107,
1,0,1,107,
1,0,1,107,
1,0,1,107,
1,0,1,107,
1577,1744,1532,1198,
6153,4417,3694,1557,
8734,4656,4874,1545,
8919,4656,5005,0,
4821,2444,1949,7,
1,0,1,107,
1,0,1,107,
1,0,1,107,
1,0,1,107,
1,0,1,107,
1,0,1,107,
1,0,1,107,
1,0,1,107,
1,0,1,107,
245,511,343,465,
3304,2908,2503,1472,
8727,4603,4961,1173,
7876,4391,3759,0,
1320,699,678,107,
1,0,1,107,
1,0,1,107,
1,0,1,107,
1,0,1,107,
1,0,1,107,
1,0,1,107,
1,0,1,107,
1,0,1,107,
1,0,1,107,
77,162,111,221,
5162,2640,4569,653,
8090,4514,5393,17,
2681,1985,676,107,
1,0,1,107,
1,0,1,107,
1,0,1,107,
1,0,1,107,
1,0,1,107,
1,0,1,107,
1,0,1,107,
1,0,1,107,
1,0,1,107,
1492,0,1643,107,
7979,3860,6145,0,
8307,5343,5129,371,
2094,1713,94,328,
1,0,1,107,
1,0,1,107,
1,0,1,107,
1,0,1,107,
1,0,1,107,
1,0,1,107,
1468,0,1655,107,
4085,1108,2724,0,
4657,957,3823,3,
8264,3755,6061,0,
8992,5558,6209,814,
6446,4821,2409,615,
208,315,1,206,
1,0,1,107,
1,0,1,107,
1,0,1,107,
1,0,1,107,
1,0,1,107,
1,0,1,107,
1385,834,1479,676,
7014,3935,4330,1328,
8645,5231,5796,1362,
8814,5438,5554,1507,
6108,5216,2580,1236,
1319,1574,1,587,
1,0,1,107,
1,0,1,107,
1,0,1,107,
1,0,1,107,
1,0,1,107,
1,0,1,107,
1,0,1,107,
38,79,55,163,
1282,1968,1063,1405,
1994,2989,902,1777,
1578,2268,295,1213,
367,531,1,296,
1,0,1,107,
1,0,1,107,
1,0,1,107,
1,0,1,107,
1,0,1,107,

//im4
1,0,1,107,
1,0,1,107,
1,0,1,107,
1,0,1,107,
1,0,1,107,
1,0,1,107,
1,0,1,107,
1,0,1,107,
1,0,1,107,
1,0,1,107,
1,0,1,107,
1,0,1,107,
1,0,1,107,
1,0,1,107,
1,0,1,107,
1,0,1,107,
1,0,1,107,
619,0,767,107,
1084,448,810,107,
336,171,238,107,
1,0,1,107,
1,0,1,107,
1,0,1,107,
1,0,1,107,
1,0,1,107,
1,0,1,107,
1,0,1,107,
1,0,1,107,
1,0,1,107,
2524,116,2544,107,
8127,3453,5536,0,
7726,3827,4542,0,
1796,1186,652,100,
1,0,1,107,
1,0,1,107,
1837,0,2004,107,
2823,1165,1952,0,
601,312,360,107,
1,0,1,107,
1,0,1,107,
1,0,1,107,
893,0,1039,107,
7662,3363,6054,0,
10080,5938,6622,361,
7339,5278,3418,604,
1366,1248,24,224,
1,0,1,107,
1,0,1,107,
4242,1651,4206,169,
6734,3759,4449,0,
1727,1218,444,107,
1,0,1,107,
1,0,1,107,
101,0,125,107,
5625,1831,4848,0,
9348,5897,6689,200,
9101,6268,4787,769,
2582,2474,217,593,
137,207,1,172,
1,0,1,107,
369,0,425,107,
7232,3293,5833,0,
8230,5177,4677,102,
1542,1185,141,200,
1,0,1,107,
1,0,1,107,
2363,121,2619,107,
9940,5102,6773,0,
10196,6347,6187,559,
4256,3547,1034,511,
141,211,1,175,
1,0,1,107,
304,0,295,107,
2889,429,2912,107,
9874,5101,6793,0,
9052,5303,4356,0,
1339,846,444,107,
1,0,1,107,
1,0,1,107,
2942,1247,3366,598,
10721,6087,6567,522,
9711,5649,5230,0,
7278,2374,5044,0,
7645,2496,5246,0,
7993,2765,5290,0,
7919,3203,5168,0,
9186,4384,6196,0,
10226,6039,6423,571,
8454,5459,3886,713,
1262,966,83,260,
1,0,1,107,
1,0,1,107,
1186,1207,1395,839,
6683,4936,3881,1482,
9182,4985,5369,1623,
9376,5246,5476,1592,
7769,5050,4171,1758,
7430,5185,3878,1718,
6575,5096,3186,1549,
9171,5318,6127,986,
9849,6124,5242,580,
3700,3138,1117,611,
120,180,1,164,
1,0,1,107,
1,0,1,107,
1,0,1,107,
331,561,343,491,
1504,2274,942,1486,
1687,2368,457,1329,
655,985,197,585,
434,614,116,422,
3026,501,3114,197,
9923,5444,6588,0,
8568,5762,3855,116,
867,841,1,205,
1,0,1,107,
1,0,1,107,
1,0,1,107,
1,0,1,107,
1,0,1,107,
1,0,1,107,
1,0,1,107,
1,0,1,107,
315,0,384,107,
6795,2951,5686,0,
9926,6140,6620,505,
6648,4785,2366,391,
72,108,1,141,
1,0,1,107,
1,0,1,107,
1,0,1,107,
1,0,1,107,
1,0,1,107,
1,0,1,107,
1,0,1,107,
1,0,1,107,
1717,237,1976,107,
9068,4891,6286,29,
9304,6198,4966,645,
2365,2245,16,542,
1,0,1,107,
1,0,1,107,
1,0,1,107,
1,0,1,107,
1,0,1,107,
1,0,1,107,
1,0,1,107,
1,0,1,107,
1,0,1,107,
2004,1029,2233,698,
7868,5155,4576,1424,
5830,4457,1863,861,
100,121,1,137,
1,0,1,107,
1,0,1,107,
1,0,1,107,
1,0,1,107,
1,0,1,107,
1,0,1,107,
1,0,1,107,
1,0,1,107,
1,0,1,107,
275,588,399,521,
999,1320,691,918,
567,822,1,398,
1,0,1,107,
1,0,1,107,
1,0,1,107,
1,0,1,107,

//im9
1,0,1,107,
1,0,1,107,
1,0,1,107,
1,0,1,107,
1,0,1,107,
1,0,1,107,
1,0,1,107,
1,0,1,107,
1,0,1,107,
1,0,1,107,
1,0,1,107,
1,0,1,107,
1,0,1,107,
1,0,1,107,
1,0,1,107,
1,0,1,107,
1,0,1,107,
1,0,1,107,
1,0,1,107,
1,0,1,107,
1,0,1,107,
1,0,1,107,
1,0,1,107,
1,0,1,107,
1,0,1,107,
1,0,1,107,
1,0,1,107,
1,0,1,107,
1,0,1,107,
1,0,1,107,
1,0,1,107,
928,0,935,107,
3322,465,2749,107,
3940,830,3186,107,
3183,799,2458,107,
939,442,643,107,
1,0,1,107,
1,0,1,107,
1,0,1,107,
1,0,1,107,
1,0,1,107,
1,0,1,107,
187,0,232,107,
3800,467,3395,75,
8690,3762,5921,0,
8931,5649,5695,783,
8820,5711,5695,1263,
8403,4948,4982,462,
6564,3417,2977,0,
758,400,402,107,
1,0,1,107,
1,0,1,107,
1,0,1,107,
1,0,1,107,
74,0,91,107,
4042,744,3629,6,
9038,5216,5957,23,
9153,5973,5966,1293,
6242,5373,2649,1593,
2838,3440,1493,1748,
5478,4386,3101,1711,
6018,3709,2889,755,
1860,1341,628,107,
1,0,1,107,
1,0,1,107,
1,0,1,107,
1,0,1,107,
3325,546,3247,63,
9499,5188,6184,0,
8956,5863,5568,864,
4060,3820,939,1085,
341,510,12,273,
2364,121,2273,107,
8019,2813,5769,0,
7091,3704,3734,30,
1279,1208,47,228,
1,0,1,107,
1,0,1,107,
1,0,1,107,
1,0,1,107,
4254,1657,4213,387,
8640,6303,5718,683,
5153,4198,1515,629,
154,197,91,159,
2209,85,2081,107,
6811,3826,4782,0,
9858,5423,6471,486,
8110,5214,3419,0,
560,418,110,107,
1,0,1,107,
1,0,1,107,
1,0,1,107,
1,0,1,107,
4277,1915,4209,600,
7926,4371,5088,157,
5395,2153,3054,107,
5822,1512,4745,0,
7643,4582,5415,29,
7014,4621,4673,821,
7799,4403,5569,797,
7757,4989,3505,69,
482,378,55,146,
1,0,1,107,
1,0,1,107,
1,0,1,107,
1,0,1,107,
2070,1481,2222,881,
8433,4171,4681,1309,
8907,5701,5682,1047,
8893,5676,5932,1441,
7693,5250,4267,1330,
2647,2646,1571,853,
7246,4398,4948,364,
6395,4688,2227,339,
72,108,1,141,
1,0,1,107,
1,0,1,107,
1,0,1,107,
1,0,1,107,
75,158,108,218,
1935,2188,1580,1336,
3324,3790,1700,1690,
2723,3451,934,1679,
1004,1426,1,680,
3088,724,3299,129,
7399,4551,5868,83,
3856,2966,814,204,
1,0,1,107,
1,0,1,107,
1,0,1,107,
1,0,1,107,
1,0,1,107,
1,0,1,107,
1,0,1,107,
1,0,1,107,
1,0,1,107,
1,0,1,107,
4468,1873,4340,260,
7848,4968,5874,318,
3314,2554,487,107,
1,0,1,107,
1,0,1,107,
1,0,1,107,
1,0,1,107,
1,0,1,107,
1,0,1,107,
1,0,1,107,
1,0,1,107,
1,0,1,107,
1,0,1,107,
4911,2513,4460,343,
7353,4511,4627,458,
1895,1609,78,280,
1,0,1,107,
1,0,1,107,
1,0,1,107,
1,0,1,107,
1,0,1,107,
1,0,1,107,
1,0,1,107,
1,0,1,107,
1,0,1,107,
1,0,1,107,
4032,2264,3524,861,
4696,3471,1844,513,
208,315,1,206,
1,0,1,107,
1,0,1,107,
1,0,1,107,

//im1
1,0,1,107,
1,0,1,107,
1,0,1,107,
1,0,1,107,
1,0,1,107,
1,0,1,107,
1,0,1,107,
1,0,1,107,
1,0,1,107,
1,0,1,107,
1,0,1,107,
1,0,1,107,
1,0,1,107,
1,0,1,107,
1,0,1,107,
1,0,1,107,
1,0,1,107,
1,0,1,107,
1,0,1,107,
1920,38,1717,107,
2221,702,1476,107,
171,87,121,107,
1,0,1,107,
1,0,1,107,
1,0,1,107,
1,0,1,107,
1,0,1,107,
1,0,1,107,
1,0,1,107,
1,0,1,107,
1,0,1,107,
383,0,474,107,
6831,2957,5623,0,
8151,4498,4324,0,
1292,801,395,107,
1,0,1,107,
1,0,1,107,
1,0,1,107,
1,0,1,107,
1,0,1,107,
1,0,1,107,
1,0,1,107,
1,0,1,107,
1,0,1,107,
1098,393,1261,186,
8451,4637,6180,301,
8984,5674,4661,158,
1505,1125,293,163,
1,0,1,107,
1,0,1,107,
1,0,1,107,
1,0,1,107,
1,0,1,107,
1,0,1,107,
1,0,1,107,
1,0,1,107,
1,0,1,107,
1671,415,1946,201,
8501,4635,5677,328,
7377,5302,2952,278,
399,523,1,247,
1,0,1,107,
1,0,1,107,
1,0,1,107,
1,0,1,107,
1,0,1,107,
1,0,1,107,
1,0,1,107,
1,0,1,107,
1,0,1,107,
1987,849,2347,317,
8821,5133,5496,341,
6771,4521,2408,0,
1,0,1,107,
1,0,1,107,
1,0,1,107,
1,0,1,107,
1,0,1,107,
1,0,1,107,
1,0,1,107,
1,0,1,107,
1,0,1,107,
704,0,815,107,
7000,2773,5672,0,
9977,5692,6896,0,
6058,4332,2008,137,
1,0,1,107,
1,0,1,107,
1,0,1,107,
1,0,1,107,
1,0,1,107,
1,0,1,107,
1,0,1,107,
1,0,1,107,
1,0,1,107,
717,473,740,437,
7733,3962,5701,765,
10644,6062,6504,505,
6089,4021,2061,367,
1,0,1,107,
1,0,1,107,
1,0,1,107,
1,0,1,107,
1,0,1,107,
1,0,1,107,
1,0,1,107,
1,0,1,107,
1,0,1,107,
7,13,10,117,
6326,3012,5349,315,
9839,5551,6116,268,
3463,2850,883,284,
1,0,1,107,
1,0,1,107,
1,0,1,107,
1,0,1,107,
1,0,1,107,
1,0,1,107,
1,0,1,107,
1,0,1,107,
1,0,1,107,
1,0,1,107,
6315,2991,5355,302,
9997,5782,6325,401,
3599,2663,713,185,
1,0,1,107,
1,0,1,107,
1,0,1,107,
1,0,1,107,
1,0,1,107,
1,0,1,107,
1,0,1,107,
1,0,1,107,
1,0,1,107,
1,0,1,107,
6247,2976,5316,656,
8297,5476,4498,369,
1697,1608,243,252,
1,0,1,107,
1,0,1,107,
1,0,1,107,
1,0,1,107,
1,0,1,107,
1,0,1,107,
1,0,1,107,
1,0,1,107,
1,0,1,107,
1,0,1,107,
3874,1885,3985,872,
6022,3723,3423,765,
1247,932,243,172,
1,0,1,107,
1,0,1,107,
1,0,1,107,
1,0,1,107,
1,0,1,107,
1,0,1,107,
1,0,1,107,
1,0,1,107,
1,0,1,107,
1,0,1,107,
550,1148,770,912,
1072,1470,656,990,
258,392,1,230,
1,0,1,107,
1,0,1,107,
1,0,1,107,
1,0,1,107,
1,0,1,107,

//im5
1,0,1,107,
1,0,1,107,
1,0,1,107,
1,0,1,107,
1,0,1,107,
1,0,1,107,
1,0,1,107,
1,0,1,107,
1,0,1,107,
1,0,1,107,
1,0,1,107,
1,0,1,107,
1,0,1,107,
1,0,1,107,
1,0,1,107,
1,0,1,107,
1,0,1,107,
1009,130,739,107,
995,421,657,107,
196,0,243,107,
667,132,540,107,
1294,107,1216,107,
1496,476,1083,107,
321,163,227,107,
1,0,1,107,
1,0,1,107,
1,0,1,107,
1,0,1,107,
1,0,1,107,
1,0,1,107,
4983,1669,4024,110,
5924,2839,3063,0,
6837,2126,5382,0,
8350,3766,5614,0,
6810,3615,3779,264,
3982,2614,2425,461,
525,376,121,177,
1,0,1,107,
1,0,1,107,
1,0,1,107,
1,0,1,107,
1,0,1,107,
405,0,502,107,
7713,3660,6172,56,
10173,5886,5779,355,
7988,5189,5336,1488,
7211,5407,3694,1543,
3959,4152,1268,1580,
1262,1680,7,800,
81,121,1,146,
1,0,1,107,
1,0,1,107,
1,0,1,107,
1,0,1,107,
1,0,1,107,
1008,496,1113,317,
8246,4426,5987,441,
8913,6365,4423,1193,
2927,3138,577,1205,
419,586,1,333,
1,0,1,107,
1,0,1,107,
1,0,1,107,
1,0,1,107,
1,0,1,107,
1,0,1,107,
1,0,1,107,
1,0,1,107,
378,503,474,434,
7140,3783,5245,1184,
9033,4597,4706,573,
7659,3186,4250,0,
3381,1221,2039,93,
357,181,252,107,
1,0,1,107,
1,0,1,107,
1,0,1,107,
1,0,1,107,
1,0,1,107,
1,0,1,107,
1,0,1,107,
1,0,1,107,
1577,1744,1532,1198,
6153,4417,3694,1557,
8734,4656,4874,1545,
8919,4656,5005,0,
4821,2444,1949,7,
1,0,1,107,
1,0,1,107,
1,0,1,107,
1,0,1,107,
1,0,1,107,
1,0,1,107,
1,0,1,107,
1,0,1,107,
1,0,1,107,
245,511,343,465,
3304,2908,2503,1472,
8727,4603,4961,1173,
7876,4391,3759,0,
1320,699,678,107,
1,0,1,107,
1,0,1,107,
1,0,1,107,
1,0,1,107,
1,0,1,107,
1,0,1,107,
1,0,1,107,
1,0,1,107,
1,0,1,107,
77,162,111,221,
5162,2640,4569,653,
8090,4514,5393,17,
2681,1985,676,107,
1,0,1,107,
1,0,1,107,
1,0,1,107,
1,0,1,107,
1,0,1,107,
1,0,1,107,
1,0,1,107,
1,0,1,107,
1,0,1,107,
1492,0,1643,107,
7979,3860,6145,0,
8307,5343,5129,371,
2094,1713,94,328,
1,0,1,107,
1,0,1,107,
1,0,1,107,
1,0,1,107,
1,0,1,107,
1,0,1,107,
1468,0,1655,107,
4085,1108,2724,0,
4657,957,3823,3,
8264,3755,6061,0,
8992,5558,6209,814,
6446,4821,2409,615,
208,315,1,206,
1,0,1,107,
1,0,1,107,
1,0,1,107,
1,0,1,107,
1,0,1,107,
1,0,1,107,
1385,834,1479,676,
7014,3935,4330,1328,
8645,5231,5796,1362,
8814,5438,5554,1507,
6108,5216,2580,1236,
1319,1574,1,587,
1,0,1,107,
1,0,1,107,
1,0,1,107,
1,0,1,107,
1,0,1,107,
1,0,1,107,
1,0,1,107,
38,79,55,163,
1282,1968,1063,1405,
1994,2989,902,1777,
1578,2268,295,1213,
367,531,1,296,
1,0,1,107,
1,0,1,107,
1,0,1,107,
1,0,1,107,
1,0,1,107,
};

#endif /* SRC_IM1_H_ */
