/*
 * IM1.h
 *
 *  Created on: 2020Äê3ÔÂ21ÈÕ
 *      Author: Administrator
 */

#ifndef SRC_IM1_H_
#define SRC_IM1_H_


short int qfc_w[64*10] __attribute__ ((aligned (64))) ={
//weight
-2173,-801,786,-3083,841,-995,-10440,268,8396,2448,
1246,6936,13410,6674,82,-3411,-148,6299,8709,-9202,
5,-341,6,3655,9268,-1907,-7356,8930,-4451,-8038,
-3522,-4242,-1685,-374,692,-2072,2893,-1185,2921,-1278,
-27,3013,6481,-37,4471,-666,-10043,8036,-1849,-339,
-1532,-3078,2975,-4652,2062,-1152,2526,-4238,-854,-2437,
-4182,-613,1631,8900,-4729,7715,-2272,2038,-3685,3542,
-7431,-5211,9171,13488,-12700,-197,-16143,11916,9665,3513,
2941,-12042,-5152,-6017,14819,567,5597,-15391,1922,14188,
525,-2090,-1297,4003,4868,-248,-1169,-3128,-5098,-1581,
2840,1246,-7821,-11972,-1431,7415,7676,-5321,5850,-814,
-5027,-2397,7538,2529,3638,556,7584,3644,2616,-6230,
-1023,5054,5520,10762,-6350,-3451,-9883,8443,-4325,-11932,
-743,6464,-5285,-6142,1062,-3495,1782,684,-6623,-1238,
-6523,-5666,271,-4644,3805,-1768,1550,3445,908,3357,
-947,-7424,-5249,-1905,2212,-779,-674,2270,3776,3954,
7551,-3101,3566,-1253,-6081,5811,2895,8956,-3447,-7484,
-275,5662,1743,-4860,-5287,2696,2691,4546,-8086,-1484,
6109,-2171,9937,-1030,-8312,-12460,-4088,3260,-1886,12057,
-643,-6079,303,3629,225,-9196,3837,3180,-1339,-1550,
-4191,23,1,9944,1887,-7888,-6452,-7031,6962,14536,
-171,5534,-7127,-4698,-3561,6533,11307,1987,-7997,-872,
3399,2020,-1287,1675,5334,4658,-3906,-1302,-4538,-2241,
11029,-17387,-3254,-5501,-4736,4670,-322,4504,-725,3566,
-10295,-5177,8,7680,2625,-2383,6441,4458,1801,-10897,
1184,-6461,1167,4932,-606,-1646,6344,-4557,-2783,-1599,
9187,10194,11478,-1925,10440,-15734,-12099,6580,-6467,-478,
-5543,-696,1461,-1847,4698,-4079,6463,3278,4570,-9416,
5528,1994,2885,-3650,-10711,6029,4267,-2082,-2347,-552,
-3555,3745,-7453,4393,-5728,11057,3971,-3399,5640,526,
5155,-2253,-1037,496,-4229,6228,7124,1747,-372,-1172,
2533,12602,-2433,5581,-2003,5209,-8169,-5242,-4480,4201,
-3780,-2982,-1676,478,-486,5554,-5224,-1360,-852,2362,
-1221,-5717,-3757,4917,2584,3029,-12213,3229,-4991,6036,
7018,-2041,-4167,1637,-2700,8019,2839,-6694,8082,-8865,
-1529,5567,-465,-1063,685,-2620,-2393,-3128,-1441,-4935,
7972,7397,8731,981,-6444,7271,3183,-4691,-3132,-4196,
5230,1939,5492,614,-2677,2006,2702,648,1902,1558,
1180,-7638,-1236,-7579,3350,745,12488,-4191,-111,-3495,
-7991,-6674,-99,1158,4838,1882,-2873,-3736,-1572,9857,
9617,-5398,4723,5127,-15655,4993,6414,-8890,9067,-9206,
-1876,-613,369,-1795,-446,-754,-541,2356,-53,-4364,
2382,2707,127,-5901,1072,-9610,1468,1477,512,-737,
8922,-1621,-8695,-51,5775,4181,-3308,10281,-9905,1017,
-8951,-893,-7719,9571,4240,6927,-9191,-37,2383,-182,
1391,5867,-583,499,1526,5539,9525,-6891,-1669,1729,
2660,962,5982,-27,-1407,1047,2364,-12335,-1066,-4660,
5462,-457,-738,-8966,-1599,-1943,4210,3583,2060,-14155,
7380,7507,8921,-2140,2690,-1458,4370,254,-10473,-257,
-7858,3828,-3238,-963,-2319,4068,-8135,235,-4283,4771,
-6730,8199,-2852,6762,-2249,10895,-3445,-9126,4631,-697,
-5526,-625,4279,859,-2884,7485,-159,1998,-5067,179,
8912,-1168,-3731,3854,-12302,-1110,7102,-9891,5279,-8878,
-2777,3151,-5654,-2503,3343,-3336,-2034,714,10664,-716,
6040,7975,12210,-11221,7199,-9233,-5016,4163,-6242,-7893,
1622,-7543,-3622,7715,-396,3722,1245,841,5328,-6046,
-11011,10627,3667,-7629,2926,806,-5030,-1186,5750,3816,
-399,-2804,-1598,-5686,-405,-3815,-4791,-1391,1005,-676,
-2085,2776,-17239,-3244,4664,4204,-1439,4913,-6389,8937,
1990,5865,3397,-764,783,-4620,-4010,701,-305,2580,
4936,5166,-5283,-3739,1773,-1052,2943,-3682,-4373,1301,
-894,2004,4334,-5210,3127,-4843,-3336,2425,-3642,-1174,
3849,6863,11420,-1572,13,1380,1497,289,-4547,4032,
-10500,3897,-1914,-3079,-3762,-3709,-4934,2246,-456,4150,
};
short int qfc_b[10] __attribute__ ((aligned (64))) ={
//bias
5650,31084,11491,19824,-1195,16719,-4087,13524,23159,14901,
};

short int qsvm_w[64 * 45] = {
23,52,6,74,-199,1183,-72,-315,-102,128,38,-80,-63,-5,-182,-174,-220,-57,101,76,88,945,-167,-62,1,-101,46,5,-667,-144,102,138,94,-180,-52,92,-144,-325,-295,-98,-237,-107,-223,-1313,395,
-83,-188,-106,44,123,884,-45,-415,154,-183,-5,256,75,176,-361,-236,37,-5,157,79,300,110,274,274,199,3230,113,-37,-207,473,-73,100,-255,-139,370,559,-178,-168,226,-142,-445,-82,-11,2023,722,
-36,41,-103,-114,167,-242,-58,26,158,108,-17,-173,29,-147,147,156,142,-82,-113,3,-63,-680,-150,-118,37,2468,71,-38,80,101,105,297,-41,230,2502,86,5,-139,93,-47,-3,27,150,3171,-534,
-2,61,14,-33,69,491,30,220,-60,-63,-15,0,0,-52,-5,0,42,4,-83,25,63,-40,192,-54,6,505,2,43,31,0,35,-27,7,-18,489,14,-3,14,-8,10,36,16,-23,-67,0,
-6,-143,2,15,126,227,13,257,-23,-19,167,181,120,16,2,191,376,5,-13,-30,23,175,234,90,-74,-1263,100,9,672,-115,46,91,23,118,589,202,52,-263,134,-58,-196,-108,297,-325,209,
0,25,0,0,35,81,-48,0,16,104,14,0,0,-4,14,0,0,45,0,-3,3,-65,4,-35,0,0,0,-34,4,0,0,27,0,0,-258,-237,-16,0,0,-8,0,-13,23,-439,-25,
-40,85,-64,0,-283,156,-194,-55,-47,-305,-150,-60,-2,81,-449,-39,199,-428,13,-83,27,2,-503,-25,33,874,115,178,679,101,0,100,-243,-36,-468,131,112,272,147,-100,-85,-59,-10,539,-145,
-132,-307,-176,45,-99,-302,-203,-493,43,-233,-299,63,108,78,-328,-368,-137,-127,513,173,443,525,189,15,193,-86,192,104,473,196,-130,186,-407,-363,-1312,356,-32,-691,-349,-176,-367,-133,155,29,105,
139,210,68,22,-173,94,363,-118,134,-239,-100,-314,-116,-359,97,-55,-632,-315,-190,-61,-176,1017,-116,-92,-163,-3296,-128,40,-487,-790,143,34,533,-8,-177,-164,64,-84,-41,177,-62,-52,-411,-2486,-166,
-29,0,-6,0,0,0,-52,0,-58,246,39,41,37,29,-10,145,6,-132,0,-21,0,-139,-88,-38,27,3056,39,-7,89,144,0,0,-4,0,-108,10,15,21,21,-7,0,0,8,-1318,28,
-1,153,147,87,259,-245,-35,109,170,187,216,0,64,215,324,-48,-132,424,-121,-28,-202,81,-211,-278,-57,-1055,-106,100,-976,-182,-82,-218,131,-1,-436,-171,68,195,170,79,358,57,-85,-1427,-67,
66,-68,47,-35,-103,-235,-20,46,2,-519,35,53,-38,-215,-174,-198,278,584,95,-33,95,1955,351,161,-84,-8,-90,-1,-620,170,42,-94,291,-101,311,-135,54,203,-19,64,40,55,-75,964,-285,
-110,-115,-47,-47,197,657,-133,77,46,-356,-145,147,120,214,-345,-132,258,-137,428,165,327,-227,528,336,83,2064,126,17,474,509,-88,146,-249,-76,1665,181,-160,-177,47,-66,-202,-14,179,1918,-168,
-27,221,27,83,-127,-231,-41,640,28,442,190,128,64,60,116,283,-64,14,-115,-99,-150,-692,461,-160,0,1382,-16,-188,54,-178,54,183,-142,22,-19,-99,-114,569,-145,-90,115,-219,37,1097,-278,
86,-81,12,-67,293,65,-137,-43,-22,29,70,-180,-10,-172,99,-374,-141,25,-24,44,11,295,-217,-29,-34,-777,-18,312,-575,-33,110,71,52,38,561,-259,-75,-208,-265,58,157,117,-2,-1035,-161,
135,113,103,58,-176,-354,-50,25,-129,43,-15,-82,-27,-161,-371,-64,-95,-79,-56,-76,137,-932,193,-188,-39,-1699,-27,-101,52,-235,11,-16,-23,-99,365,-227,7,-143,76,-8,-187,-41,-226,532,218,
153,325,119,159,86,326,-33,340,220,-393,-198,-150,-117,-232,-98,-180,107,95,90,-192,-161,-55,242,62,27,-964,-42,3,-125,526,-19,-223,-294,26,659,65,1,574,296,-26,-55,67,297,180,394,
-32,-53,77,63,75,-698,89,48,67,-36,-42,41,40,-85,-173,26,11,183,-126,-19,-137,474,66,38,-3,-1459,28,-415,-295,-296,-17,-202,-188,-8,-766,189,-65,-202,-176,1,237,-16,249,752,-152,
58,-59,11,165,460,930,29,129,-37,-252,-143,-38,173,275,-413,206,-98,325,208,266,464,138,472,15,41,1366,61,-122,126,-76,80,306,-245,23,-1026,0,-370,-280,-443,-166,-200,-199,216,-894,-100,
-84,-174,-71,-72,-186,-713,-80,-272,-129,-208,-73,19,2,38,-202,-258,-211,3,135,57,135,977,530,21,29,2108,-13,544,-293,206,32,66,-276,-206,-78,-424,-76,-788,-46,4,-24,-1,276,1676,123,
-39,-42,-39,20,414,-295,-47,-413,-43,-273,-15,-186,59,144,6,-339,-225,-5,-41,220,158,1207,250,-87,-51,4516,57,258,-43,-153,83,-114,118,70,-1317,-106,-24,-369,-541,-41,-361,-110,-281,-716,-6,
-71,63,-52,85,-494,-617,157,214,201,389,139,46,-81,-120,671,331,376,-99,207,-216,-219,303,357,-31,6,-586,-52,-276,888,17,48,-363,-168,102,1696,-365,23,815,211,75,342,137,-27,991,-506,
-19,141,42,7,-220,179,205,-60,198,97,57,40,39,-75,287,128,76,-179,0,-57,-32,155,21,0,0,-1057,2,-154,3,55,-16,0,-11,0,0,640,153,752,270,-1,37,0,105,-2369,-4,
190,38,65,185,60,368,26,290,49,-201,-121,19,-246,-310,-36,-209,-298,69,20,-18,121,-849,-200,-53,63,-490,-56,147,-119,-332,-70,-143,-94,-116,-911,82,-10,163,163,-63,131,-43,-27,596,-243,
-85,-97,-12,-160,-8,-305,10,186,20,262,-76,22,-98,-283,-246,-167,147,-291,-160,-24,28,-975,-376,-14,5,516,-26,285,640,619,67,40,178,-114,999,19,46,-120,-31,10,252,140,-105,1017,862,
0,0,0,0,-19,0,0,0,0,0,0,0,0,0,0,0,0,0,0,0,0,0,0,0,0,-156,0,0,0,0,0,0,0,0,0,0,5,0,0,0,0,0,0,0,0,
-138,-88,-1,-18,326,659,70,352,-30,48,319,81,244,147,28,433,-46,231,-83,186,507,-700,635,25,-99,177,12,12,565,-132,310,466,95,490,2163,-202,-233,-621,-505,-97,-123,-192,336,687,-493,
12,-150,-45,-101,-68,-102,-60,-83,-154,-5,79,-93,12,186,35,-54,212,54,-5,33,-47,239,-8,131,-4,2274,-63,11,-174,169,85,-124,38,-18,383,-105,-57,-184,107,5,-23,45,21,1176,137,
67,-175,58,83,206,100,-16,-20,11,-233,55,77,-132,-85,259,-28,148,71,267,9,117,452,202,171,35,-3329,6,108,395,318,-152,-435,-185,-80,-947,187,24,116,337,4,-129,106,46,1983,39,
-152,58,-15,52,-180,-272,-47,-151,68,297,-33,208,-131,34,159,3,218,-305,157,-148,-179,-969,-97,163,92,-633,-43,196,246,734,-252,-260,-66,-274,-687,251,209,498,473,45,-104,68,-92,1151,343,
58,3,45,-31,-272,-985,-80,88,-41,160,103,-99,-40,-367,-92,-129,86,-65,-8,-86,-261,631,39,163,44,-757,-111,-78,-158,134,-54,-60,-124,198,-1211,49,58,-8,99,13,290,35,-124,1112,-203,
-51,93,-18,24,57,577,130,166,45,481,14,350,227,315,547,302,641,-377,-56,72,37,700,128,-52,-62,1669,39,30,66,178,2,0,-152,29,-1273,-73,-6,-186,-35,-14,-53,-31,292,652,-474,
16,-11,-123,66,-54,39,55,-314,-73,555,-113,-38,-208,262,226,-47,-31,-30,-84,3,-113,-503,91,-62,91,1297,91,-273,245,-19,-126,-111,16,-118,-516,241,162,-20,215,10,-429,50,88,-229,-336,
1,103,-111,-158,-166,211,-190,95,-248,-296,42,-450,-196,187,-356,-30,-701,-155,-329,-32,6,-1065,589,-221,-20,1812,86,288,1139,315,47,298,57,181,1323,-23,104,480,102,-42,-51,-173,549,1052,-929,
17,203,-45,48,21,268,188,259,82,143,25,6,-127,-175,180,-79,-14,-381,261,-190,-22,-845,-398,30,39,-906,-29,345,-19,299,-102,-193,-283,-247,2291,442,212,73,74,3,102,60,-32,-67,611,
39,50,8,-10,-33,18,-106,-97,45,-5,2,-19,-42,27,-86,3,-30,-13,-139,8,16,42,102,51,-4,-1898,-1,-149,-24,5,3,62,46,75,-391,73,27,-27,135,-2,95,4,-21,-807,-249,
-22,-222,2,0,-371,-54,-11,64,28,-24,83,22,130,-109,401,25,438,204,459,69,140,1460,460,308,20,-669,16,147,554,-90,-47,75,82,34,-636,336,115,490,0,98,37,41,-50,784,128,
0,3,21,10,115,233,-64,-116,21,0,0,0,0,0,-61,0,-4,74,96,-64,-1,-76,-134,-39,-7,-1646,0,118,26,-194,-18,-37,147,7,257,-181,30,-36,5,14,48,13,185,-885,0,
-90,40,19,-140,-10,-15,-125,-186,-62,-156,-27,-83,-62,-332,-180,-20,147,-48,-63,18,-159,1200,-395,2,-93,-786,0,-184,-74,-100,28,-149,-1,131,1455,-111,-60,-211,-141,4,214,-7,95,-755,257,
-79,-125,-131,-46,-442,258,-15,-363,-277,-166,-210,-204,-139,13,-279,-259,-432,369,-162,4,105,-360,-311,-236,49,257,123,-186,296,-135,-61,138,374,31,-932,707,31,0,-22,-68,-407,-129,-129,-1428,-357,
207,161,80,288,149,121,243,-238,250,-56,-231,211,-123,-131,-2,-410,296,26,91,-83,-312,276,-184,206,105,918,-31,388,-256,659,-143,-294,-32,-473,347,-434,144,-323,491,102,-241,201,-579,-62,791,
-11,26,-11,0,-31,-221,-63,-141,23,-20,95,-17,0,30,-132,149,-36,66,41,0,77,-2453,82,94,15,6416,2,-26,448,513,-25,23,-112,-26,686,-249,-80,-230,116,-16,285,22,85,2168,-199,
-105,212,117,-92,288,385,-129,-147,-64,-123,114,-117,34,428,-2,136,-121,276,-222,69,-71,-315,-205,-149,-38,3196,-90,-333,-953,-140,30,-69,37,30,488,-479,-208,-504,-88,-33,-107,-25,46,249,-60,
192,251,166,70,85,889,-4,506,136,174,-117,-76,-134,187,167,156,-6,-132,-49,55,89,-1040,52,-85,56,-1615,-121,86,-67,-89,-61,137,-413,94,389,-81,24,432,-98,-68,262,5,324,868,-51,
-141,-112,-230,42,-390,-135,-132,-237,-299,-2,-150,113,-57,616,278,-4,21,-437,23,-56,-30,-1211,-181,-19,175,113,183,420,592,59,-142,157,24,-173,1391,243,259,1023,56,-69,-377,-72,-187,-570,-154,
-10,-12,15,-41,-26,200,-37,289,52,-34,169,-68,61,-82,178,408,-321,-80,-124,-43,-295,356,177,-97,-57,1356,-44,14,143,185,35,-219,266,70,303,-224,45,271,28,106,257,99,-85,-2179,-214,
26,153,-17,69,-278,-115,156,182,10,-359,-78,190,-25,-260,319,280,290,213,125,-115,3,1457,363,-4,124,34,38,451,12,205,-68,-253,45,-80,260,473,232,520,139,21,291,91,-58,814,-76,
14,-61,117,-68,201,178,-79,421,249,-436,53,45,137,-75,-380,125,168,237,177,69,245,-1153,-53,280,-9,-1450,-45,-404,-542,-83,25,316,-207,-44,501,-179,-92,156,107,-42,133,-3,-11,1246,524,
6,1,-31,48,-23,-140,244,-104,139,-330,35,117,-2,-49,39,218,60,221,260,122,48,432,600,277,89,-1727,1,-50,566,-99,47,-255,-141,13,788,-14,-47,-19,21,45,201,152,44,80,-310,
0,-159,-48,-9,-394,339,-100,75,-18,-102,-123,-61,-118,146,-72,199,37,204,-201,57,102,-629,423,-75,73,-471,-14,-70,587,-149,-43,203,18,9,181,325,91,273,141,-30,24,-150,404,67,-338,
-78,-250,-140,-146,-400,11,-120,-314,-287,383,-29,213,-63,23,243,-101,69,-381,-163,-185,-118,-211,-511,38,118,-618,36,400,-59,202,-89,32,145,-48,-1639,545,126,600,31,67,-112,-74,-169,-761,105,
5,76,-51,52,-179,243,-12,-90,41,-164,-30,74,-19,125,-200,174,-253,133,-35,-11,162,-399,-28,-13,-2,3375,37,123,410,51,-29,24,-99,-29,-1898,382,42,139,16,-1,61,-14,31,-628,-201,
284,237,-46,186,297,-41,129,162,185,-168,-177,48,-87,-249,229,-247,55,-171,111,-129,-351,422,118,55,109,-565,27,284,447,323,-250,-311,54,-135,-848,-133,128,103,288,42,5,142,-365,-474,329,
-151,-34,-112,-97,30,142,-274,-719,-76,525,30,41,44,193,195,-33,-71,-251,-127,-82,-15,-831,-663,-1,-15,-1225,31,-137,-210,-289,49,-103,-104,3,208,344,-191,-696,-109,-5,-254,23,-147,93,191,
-11,-85,7,-41,319,193,-199,132,-139,-10,133,-72,-37,-132,166,45,84,440,-22,94,-33,110,461,196,-217,-478,-40,-505,-840,-255,98,105,236,103,1726,-78,-106,167,16,-5,0,-39,59,1059,315,
-6,106,-51,74,-83,-193,292,-84,248,-43,-207,18,-73,175,122,-190,-59,-429,4,-126,42,361,-552,-20,118,408,92,236,404,292,-140,-66,-229,-146,-264,106,185,213,361,37,81,4,-8,879,285,
-153,-294,-46,-86,-113,-290,-318,-159,-381,-201,322,46,70,-183,-56,32,-199,376,49,125,-274,1369,-143,233,-119,680,39,-429,-1052,-376,6,-98,148,-20,-367,320,-92,-278,-133,-59,-138,-150,-499,-333,294,
0,-4,0,-5,55,152,6,20,-3,-42,0,-4,0,0,0,0,0,119,43,20,11,652,0,6,0,0,0,15,0,-184,3,-16,0,14,3,-23,0,0,0,4,6,3,8,0,0,
18,223,19,-25,52,-43,14,122,-72,395,-45,4,5,521,-10,162,126,-450,-405,-86,-188,-1890,-581,-388,-17,-4474,99,-266,-43,-92,31,27,171,23,-1375,143,-17,474,-61,-44,41,-148,162,-1234,-344,
-101,42,-16,-55,32,245,-179,70,-3,-253,151,63,73,171,252,-18,17,100,-104,19,78,540,-95,162,-38,-276,4,-61,-162,-37,5,265,-198,-20,-992,303,75,186,-84,-32,-153,-51,31,-385,307,
0,-26,33,19,336,445,-53,249,140,-91,-3,0,-34,-82,-138,0,-27,-202,0,-66,-172,-483,41,-68,0,1241,-49,-84,681,-206,-13,-119,0,0,-779,-511,-3,-238,65,38,130,16,77,-273,-250,
-132,-145,39,-92,324,-630,-100,-91,-28,86,314,35,84,110,-63,332,206,435,116,121,169,-345,399,148,-44,-98,-56,-259,147,35,62,26,-119,413,-390,-612,-178,277,241,2,349,129,248,445,-562,
-113,-245,-38,-144,-160,171,-179,18,-238,-358,200,7,12,-268,-137,160,65,516,12,89,128,535,269,41,-41,-1318,35,-236,-816,-227,-69,78,65,16,289,182,37,752,233,-10,289,-74,327,-249,-154,
-146,-104,-73,-98,3,-788,-169,0,-43,311,93,48,8,-74,38,247,5,-122,-107,-8,-58,-1011,62,133,-35,229,-5,-283,479,-150,-59,-215,-132,16,-217,-136,-75,-76,-6,-25,-14,13,-19,-229,-116,
};

short int qsvm_b[45] = {
2019,-701,3294,482,954,-7294,3610,1863,-643,1408,2183,777,1402,-3241,-507,935,-140,2887,3032,-1024,-980,-406,-3061,-1749,-1546,-16752,-2356,-2380,-15272,-6990,837,1868,-1261,1780,6603,-5358,974,-6687,-3122,1801,2889,2806,938,-13858,1393,
};


short int qc3_w[3*3*8*16]={
4997,5339,14082,-2554,-3496,4801,172,391,-7603,-2318,-8893,-3760,-4351,1851,-4300,8797,
-6423,4133,-1776,-1387,1458,8071,-2281,4709,-1463,2854,-5961,3141,-6839,-1760,2234,-3645,
-6158,3527,7879,3330,3277,4812,8454,2272,2158,347,-6051,3373,5049,-3131,-8202,-102,
573,-2937,353,-878,347,8691,-1773,1844,-1615,65,3037,-652,-3848,2408,-3724,-1001,
-560,1105,-1193,2513,-6433,868,-515,-4835,2420,-4703,6222,1481,1821,-1453,-2533,-3529,
-6405,1248,-1093,2704,5048,3162,2662,5121,-4564,-4644,4262,1063,-1230,183,475,-1225,
-3125,4594,1309,1220,-3972,6053,-120,-1867,-1085,-4785,1745,931,-4675,1488,-1907,3743,
-3432,7067,9287,-4104,11009,7636,5838,10880,-2082,-3,7731,1279,-15686,-2561,-6218,11633,
-3026,1411,7395,2107,-2767,-2741,5450,273,4956,-1287,-3475,-4665,-5400,2207,4378,5004,
-2443,-1547,-11967,-1357,-9691,5009,2308,122,-614,2350,1889,1154,-1049,-5486,1446,-74,
9629,3800,-3069,-3701,-5377,4156,3843,21399,-8719,937,-8508,-10420,10844,-4647,-1035,-2150,
-6380,-2233,417,1709,1308,-371,-4531,-4263,-658,2546,13078,4511,-6395,-3570,1339,242,
-2962,-2268,-1743,6352,-1648,-5857,5275,-7429,740,-3389,7324,2927,-2514,-79,0,-495,
2201,4385,-1027,-849,589,1803,4249,8799,1573,5395,-3523,-2742,3991,-3003,2277,-3955,
-73,1737,-9976,2140,-1671,4503,2744,-5545,3701,6062,-2896,9702,-4047,-69,1298,3192,
-2277,835,2186,581,6950,-894,2768,9557,4353,-3427,15104,7126,-10319,1058,-5427,7434,
6756,3454,-4204,-4967,-3923,-1983,-6232,2795,4149,-1477,-4481,-7248,-1262,1278,-1270,1633,
1278,-822,-1175,2810,-2388,-4083,4189,-3341,3160,1392,4780,-288,-1154,2791,6506,-6095,
-1519,1764,-1765,-1084,-12460,749,3611,11876,-1392,2586,-3450,1182,8264,-3618,-3539,6401,
1206,2093,-2065,539,-2158,2857,-2537,-6791,1455,-3481,4524,2677,-3132,-1416,-439,1584,
-3644,-660,3052,-543,-2456,3578,-5867,-7757,-1757,1689,2498,-1951,146,-4289,-2632,619,
-3739,5036,-5134,-6883,-6332,-5436,10801,4026,2453,1676,929,-618,0,-3213,5479,-479,
-3040,-3640,-9323,2002,-6857,-527,4122,-5267,7351,-2938,485,-885,-607,3791,-1162,-4779,
-9009,2946,-4580,3705,9800,-6248,712,2909,829,-2956,6706,-2479,8670,-1493,-2459,-3317,
8698,-8835,-3195,-2962,4762,-1917,-12883,668,-4880,-2744,-10874,1083,10072,-3350,-27,-1996,
1212,-1146,-4857,2378,-2006,-5500,-3580,-6105,-3076,554,-6479,1974,-2450,3207,-386,-84,
5709,14162,2404,-4662,-2354,-3654,-7274,-3725,-5993,3022,-4552,696,-3210,7008,-7637,-5495,
71,-7343,-4539,5600,-1855,-54,2108,-1442,2272,-5044,1153,7341,-4579,-3096,1792,-642,
678,-6852,-5641,780,345,66,32,-3119,4488,-2123,4355,4024,-6591,-526,-1645,7863,
-2436,-1982,-1297,-259,-4348,1993,1516,-1998,4078,4026,321,-4915,1102,3597,-2533,542,
429,1690,2515,7013,-3495,-6202,5245,-4334,-332,1785,2896,-2473,-3414,3969,2294,5123,
7036,-7733,-6961,1903,-5219,3735,-6527,-7057,4369,520,-6493,-5942,3697,-1445,3204,4932,
10048,-6440,3889,-1772,-2799,3857,-4715,-3730,1162,-2434,192,4301,11095,-3013,5234,-4273,
-928,4349,-1926,288,3451,-3708,4145,-3095,5900,-1509,985,-1173,-7247,4036,493,200,
-644,1285,-2565,475,-209,-5346,-5511,-1176,-7465,-2309,-10325,-3398,-6701,6139,-2003,-7203,
3750,2796,2945,4030,2570,-4159,-1938,-5961,8566,-702,8462,-6141,2000,1476,4999,-1679,
-1176,2623,3539,-4576,-1834,-441,5222,-2388,7291,-2862,6023,3696,1177,961,3866,9894,
-1711,4293,-2335,-11,556,-7453,1703,2532,764,3012,-5711,-4713,-6224,2674,-4709,-1003,
-2553,-4367,-6910,3522,3796,-4204,2389,-714,3647,-904,-1221,7104,-1691,-2802,5393,-1263,
3468,-10850,3439,-3827,4916,-4164,8109,-4411,4754,-3297,12710,-11085,-3786,-11,-4591,2647,
1464,-914,4289,-15,3466,-1339,2791,-921,-965,-1079,1028,2731,4067,1152,9020,-4785,
-276,2874,-3067,496,2042,-2449,4840,-3989,5187,3087,-300,4473,-5091,3093,-5035,6798,
587,-6593,-7223,-3887,-3719,599,813,-2870,-2493,4240,-3056,6511,848,8843,-4703,-96,
2579,202,2253,3723,5655,500,2107,-55,-2072,934,1976,1887,7658,4721,759,-96,
-920,-1241,3984,3222,8349,-1236,3659,-1168,3610,-2244,-3065,590,-2464,699,-1665,-639,
-230,-356,-433,4053,-2904,-3279,-6648,-6124,-750,995,-3333,-825,-2158,2473,-5071,-1263,
89,-2383,-8465,-618,-497,-2202,-2484,324,-1851,-1465,1175,2066,-3021,1216,-3826,1244,
2313,-3590,-2741,-3347,1669,-5491,-191,-837,-8511,2618,2211,-1667,650,2296,-999,-3291,
-10935,-1309,137,-5,-2513,3821,-7984,3654,1338,-2392,-7271,598,5362,9156,-907,-9113,
3430,-5662,2740,-1679,6708,-655,-7427,3369,-6967,464,687,1866,1549,1888,3727,-2483,
-376,-6513,2364,-2496,11072,2001,-1994,-4964,-2676,-1485,-2339,-5318,6922,-1462,3103,701,
-1213,-1090,-2260,3468,-8603,1170,-8402,2520,5703,4289,6954,1884,4357,-3497,6235,-2443,
-3687,-5295,961,-2009,-11811,4983,-2446,-3092,8693,-4406,4013,-4049,2814,4404,765,409,
2711,499,5457,3343,8206,-2422,1248,-1552,787,-351,612,5245,-2280,-7773,2187,673,
661,-119,1212,3313,-1252,-2646,-1641,1685,-10240,1254,3708,1986,1322,3991,1618,-3747,
-3576,292,-333,5146,1862,-4324,-6133,-1933,12462,-1211,712,4979,-714,6129,4528,2523,
-2019,2318,5948,5821,-8448,-4953,-807,-4448,10819,-473,-1730,2188,-1802,-3396,491,2483,
-1923,-454,-2012,2421,3290,-1997,1749,2082,-13789,-3437,-2068,4179,1315,1301,-2635,-4214,
10271,-5241,-49,101,7918,3433,10478,6802,5761,2723,146,-889,5573,4888,3621,-2946,
-4444,985,6929,2626,-4118,571,-4092,3161,-229,-3465,3146,6717,-4458,-1178,-3940,-3557,
-3509,-4430,4654,-1077,-1456,-194,-2358,662,1263,5254,8830,1155,-2992,-1384,-3455,-812,
-4391,-574,-2136,-2944,-1720,-2849,-953,4192,-2037,-943,1480,-1070,-213,-3888,1606,2394,
-3531,1628,3198,-2163,763,22,753,4306,-14897,-4553,1723,-1803,2250,2090,-1561,-5960,
-3778,6626,4350,1412,-7349,309,-4004,10583,-595,-4775,888,8302,-738,-7945,3237,3560,
158,323,3033,45,-3845,-1232,-4002,-8580,1642,-1405,-5447,-1096,3478,-3402,1090,788,
-640,2915,-956,-751,-1369,-1310,3093,400,-4378,-126,-2568,10111,1270,4071,2108,-4081,
-1215,1623,-3891,-2405,-2304,-5762,6496,-4459,7712,804,-396,-1443,1030,1673,4737,-1192,
-3950,922,3924,-4892,-5059,-2830,1433,6826,1830,-6417,-1491,3900,-1697,-6721,3857,3649,
539,2979,1246,848,-1313,7277,-1538,5338,-758,-2546,-1447,1020,-2719,441,-1064,2214,
590,-377,-2874,-2288,-2333,1449,3137,-3459,4092,-33,-3440,485,-1611,-1031,1120,-5178,
3923,5691,-847,-1790,3227,4241,-4615,3565,-4679,-62,918,310,-3270,3019,-1905,-4258,
2663,1569,640,-5004,-6322,-1207,-12565,1014,5372,1987,-4737,849,-2417,-10207,3162,1775,
};

short int qc3_b[16]={
-21066,24566,13945,-7344,17381,4976,11665,-14384,-13557,282,-16720,-13638,-11567,-469,-15471,22909,
};

short int qc1_w[3*3*4] __attribute__ ((aligned (64))) ={
//kernel
12113, 18457, -4933,  5798,
13981, 15308,  6558,  9695,
 8357, 17975, 12171, 12639,
25410, 14681,  1434, -2748,
32049, 18989, 17957, -3341,
23994,  5047, 23435,  -525,
21126, 10772, 14893, -6605,
23717,  5726, 13344, -8487,
18595, -3929, 23062, -7805,
};
short int qc1_b[4] __attribute__ ((aligned (64))) ={
//bias
439,    83,   444, 27602,
};

short int qc2_w[3*3*4*8] __attribute__ ((aligned (64))) ={
-1904,3743,8118,-2916,9633,-2689,12514,9117,
-1544,-2855,-2368,-4357,7609,-8047,11141,-3667,
1508,274,11749,8632,9259,-6800,11007,8531,
913,-2874,3024,-7581,-3050,182,-6336,402,
-7855,9787,2306,7098,530,581,7389,9196,
-4775,5915,202,3845,2443,-1275,7799,5447,
-5920,8811,10188,7335,592,4695,-3448,2491,
3410,-103,-1830,-1962,-948,-5500,-537,4764,
-7828,10146,11784,-5502,-13666,11273,-8249,3938,
-4541,7830,-2084,2226,-10042,-1158,-787,1369,
-6212,8422,5789,-6810,-4087,2615,-2592,3730,
-835,-4686,875,-1029,485,2575,909,-1444,
12008,10346,7787,2704,11252,8286,7556,2772,
-122,107,10242,2334,5003,6357,7807,4013,
3352,2860,5026,10118,7362,991,3581,10988,
3684,2577,11940,-9006,-4873,2738,235,-142,
-1585,4430,14660,7005,-4034,6627,-7881,10066,
-2862,7424,9055,-361,-5765,5724,22,6555,
2311,-1210,4272,-3728,-7043,1776,-6565,9619,
-210,-3559,8774,-5587,-1345,352,-500,-4672,
-1718,-1473,6850,-5806,-4916,4779,-5483,3878,
-5645,3110,7113,-5510,-4490,6958,-1994,6717,
1982,-1718,7728,-5680,18,1471,-4974,-860,
-1082,-3125,4063,-2760,5077,1790,-6899,-617,
14619,32,-18434,6775,9318,-2995,-3128,4124,
4947,-1334,-10799,4341,5871,7393,3128,5395,
8181,7537,-13378,8296,5634,-5024,-3617,5559,
2918,411,6124,43,2652,3193,540,-1655,
13646,-2103,-20940,2200,-3607,-4211,-12482,5271,
9379,-1650,-5724,2683,-2346,686,-6398,3249,
2063,-4161,-5127,4156,-2515,-8011,-2238,2674,
8661,-1939,2609,-1760,-3115,-3070,729,-5360,
16123,-6792,-11710,627,-3863,1249,-7268,8008,
10507,-8420,-4982,-4597,-3479,-851,-344,3774,
10802,-7477,-4147,961,49,6024,-4407,4767,
1217,-3719,4177,-5689,-1386,-4266,-1040,-4469,
};

short int qc2_b[8]={
-16124,-2563,14704,-23970,8371,6227,-7779,-14210
};

unsigned char Layer1_im[6*28*28] __attribute__((aligned (1024)))={

//im1
0,0,0,0,0,0,0,0,0,0,0,0,0,0,0,0,0,0,0,0,0,0,0,0,0,0,0,0,
0,0,0,0,0,0,0,0,0,0,0,0,0,0,0,0,0,0,0,0,0,0,0,0,0,0,0,0,
0,0,0,0,0,0,0,0,0,0,0,0,0,0,0,0,0,0,0,0,0,0,0,0,0,0,0,0,
0,0,0,0,0,0,0,0,0,0,0,0,0,0,0,0,0,0,0,0,0,0,0,0,0,0,0,0,
0,0,0,0,0,0,0,0,0,0,0,0,0,0,0,0,0,0,0,0,0,0,0,0,0,0,0,0,
0,0,0,0,0,0,0,0,0,0,0,0,0,0,169,207,33,0,0,0,0,0,0,0,0,0,0,0,
0,0,0,0,0,0,0,0,0,0,0,0,0,0,168,254,105,0,0,0,0,0,0,0,0,0,0,0,
0,0,0,0,0,0,0,0,0,0,0,0,0,84,249,254,105,0,0,0,0,0,0,0,0,0,0,0,
0,0,0,0,0,0,0,0,0,0,0,0,0,89,254,254,105,0,0,0,0,0,0,0,0,0,0,0,
0,0,0,0,0,0,0,0,0,0,0,0,0,89,254,193,14,0,0,0,0,0,0,0,0,0,0,0,
0,0,0,0,0,0,0,0,0,0,0,0,0,89,254,184,0,0,0,0,0,0,0,0,0,0,0,0,
0,0,0,0,0,0,0,0,0,0,0,0,7,204,254,184,0,0,0,0,0,0,0,0,0,0,0,0,
0,0,0,0,0,0,0,0,0,0,0,0,0,89,254,184,0,0,0,0,0,0,0,0,0,0,0,0,
0,0,0,0,0,0,0,0,0,0,0,0,13,209,254,178,0,0,0,0,0,0,0,0,0,0,0,0,
0,0,0,0,0,0,0,0,0,0,0,37,209,254,254,69,0,0,0,0,0,0,0,0,0,0,0,0,
0,0,0,0,0,0,0,0,0,0,0,107,254,254,254,184,0,0,0,0,0,0,0,0,0,0,0,0,
0,0,0,0,0,0,0,0,0,0,0,3,187,254,254,134,0,0,0,0,0,0,0,0,0,0,0,0,
0,0,0,0,0,0,0,0,0,0,0,0,185,254,155,3,0,0,0,0,0,0,0,0,0,0,0,0,
0,0,0,0,0,0,0,0,0,0,0,0,185,254,238,7,0,0,0,0,0,0,0,0,0,0,0,0,
0,0,0,0,0,0,0,0,0,0,0,0,185,254,254,8,0,0,0,0,0,0,0,0,0,0,0,0,
0,0,0,0,0,0,0,0,0,0,0,0,185,254,231,7,0,0,0,0,0,0,0,0,0,0,0,0,
0,0,0,0,0,0,0,0,0,0,0,0,185,255,87,0,0,0,0,0,0,0,0,0,0,0,0,0,
0,0,0,0,0,0,0,0,0,0,0,0,173,254,87,0,0,0,0,0,0,0,0,0,0,0,0,0,
0,0,0,0,0,0,0,0,0,0,0,0,9,254,87,0,0,0,0,0,0,0,0,0,0,0,0,0,
0,0,0,0,0,0,0,0,0,0,0,0,9,254,87,0,0,0,0,0,0,0,0,0,0,0,0,0,
0,0,0,0,0,0,0,0,0,0,0,0,0,0,0,0,0,0,0,0,0,0,0,0,0,0,0,0,
0,0,0,0,0,0,0,0,0,0,0,0,0,0,0,0,0,0,0,0,0,0,0,0,0,0,0,0,
0,0,0,0,0,0,0,0,0,0,0,0,0,0,0,0,0,0,0,0,0,0,0,0,0,0,0,0,

//im8
0,0,0,0,0,0,0,0,0,0,0,0,0,0,0,0,0,0,0,0,0,0,0,0,0,0,0,0,
0,0,0,0,0,0,0,0,0,0,0,0,0,0,0,0,0,0,0,0,0,0,0,0,0,0,0,0,
0,0,0,0,0,0,0,0,0,0,0,0,0,0,0,0,0,0,0,0,0,0,0,0,0,0,0,0,
0,0,0,0,0,0,0,0,0,0,0,0,0,0,0,0,0,0,0,0,0,0,0,0,0,0,0,0,
0,0,0,0,0,0,0,0,0,0,0,0,0,0,0,0,0,0,0,0,0,0,0,0,0,0,0,0,
0,0,0,0,0,0,0,0,0,0,0,0,0,0,0,0,0,0,0,0,0,0,0,0,0,0,0,0,
0,0,0,0,0,0,0,0,0,26,121,121,121,190,255,253,253,253,253,253,232,44,0,0,0,0,0,0,
0,0,0,0,0,0,0,132,240,242,252,252,252,252,253,252,252,252,252,252,252,93,0,0,0,0,0,0,
0,0,0,0,0,0,85,248,252,252,252,252,252,252,159,158,193,252,252,252,216,10,0,0,0,0,0,0,
0,0,0,0,0,0,64,240,252,252,176,39,39,39,0,0,15,107,252,252,182,30,0,0,0,0,0,0,
0,0,0,0,0,0,0,213,252,252,195,25,0,0,0,0,110,216,252,174,25,20,0,0,0,0,0,0,
0,0,0,0,0,0,0,56,213,252,252,196,51,0,26,180,245,252,238,52,0,0,0,0,0,0,0,0,
0,0,0,0,0,0,0,0,109,252,252,252,248,173,211,252,252,239,86,0,0,0,0,0,0,0,0,0,
0,0,0,0,0,0,0,0,25,196,252,252,252,252,253,252,242,153,0,0,0,0,0,0,0,0,0,0,
0,0,0,0,0,0,0,0,0,23,127,247,252,252,253,252,163,3,0,0,0,0,0,0,0,0,0,0,
0,0,0,0,0,0,0,0,0,0,0,90,252,252,253,252,252,110,0,0,0,0,0,0,0,0,0,0,
0,0,0,0,0,0,0,0,0,0,20,204,253,253,255,253,253,173,0,0,0,0,0,0,0,0,0,0,
0,0,0,0,0,0,0,0,0,0,97,252,252,195,146,247,252,206,23,0,0,0,0,0,0,0,0,0,
0,0,0,0,0,0,0,0,0,49,244,252,240,12,0,81,242,252,102,0,0,0,0,0,0,0,0,0,
0,0,0,0,0,0,0,0,0,166,252,252,126,0,0,0,226,252,242,56,0,0,0,0,0,0,0,0,
0,0,0,0,0,0,0,0,53,238,252,252,106,0,0,0,122,252,252,66,0,0,0,0,0,0,0,0,
0,0,0,0,0,0,0,0,53,238,252,252,106,0,0,0,94,252,252,66,0,0,0,0,0,0,0,0,
0,0,0,0,0,0,0,0,0,186,252,252,127,0,0,39,189,252,241,56,0,0,0,0,0,0,0,0,
0,0,0,0,0,0,0,0,0,103,252,252,247,160,161,247,252,252,171,0,0,0,0,0,0,0,0,0,
0,0,0,0,0,0,0,0,0,23,197,247,252,252,253,252,247,196,22,0,0,0,0,0,0,0,0,0,
0,0,0,0,0,0,0,0,0,0,0,76,126,252,253,126,75,0,0,0,0,0,0,0,0,0,0,0,
0,0,0,0,0,0,0,0,0,0,0,0,0,0,0,0,0,0,0,0,0,0,0,0,0,0,0,0,
0,0,0,0,0,0,0,0,0,0,0,0,0,0,0,0,0,0,0,0,0,0,0,0,0,0,0,0,

//im5
0,0,0,0,0,0,0,0,0,0,0,0,0,0,0,0,0,0,0,0,0,0,0,0,0,0,0,0,
0,0,0,0,0,0,0,0,0,0,0,0,0,0,0,0,0,0,0,0,0,0,0,0,0,0,0,0,
0,0,0,0,0,0,0,0,0,0,0,0,0,0,0,0,0,0,0,0,0,0,0,0,0,0,0,0,
0,0,0,0,0,0,0,0,0,0,0,0,0,0,0,0,0,0,0,0,0,0,0,0,0,0,0,0,
0,0,0,0,0,0,0,0,0,0,0,0,0,0,0,0,0,0,0,0,0,0,0,0,0,0,0,0,
0,0,0,0,0,0,0,0,0,0,131,55,0,0,0,43,43,43,69,148,62,0,0,0,0,0,0,0,
0,0,0,0,0,0,0,0,0,0,148,168,0,22,173,253,252,252,231,124,27,0,0,0,0,0,0,0,
0,0,0,0,0,0,0,0,0,0,201,246,144,237,252,241,196,73,16,0,0,0,0,0,0,0,0,0,
0,0,0,0,0,0,0,0,0,0,253,252,252,236,101,35,0,0,0,0,0,0,0,0,0,0,0,0,
0,0,0,0,0,0,0,0,0,89,253,252,146,31,0,0,0,0,0,0,0,0,0,0,0,0,0,0,
0,0,0,0,0,0,0,0,0,107,255,183,4,0,0,0,0,0,0,0,0,0,0,0,0,0,0,0,
0,0,0,0,0,0,0,0,0,27,253,252,135,0,0,0,0,0,0,0,0,0,0,0,0,0,0,0,
0,0,0,0,0,0,0,0,0,0,144,247,251,206,83,9,0,0,0,0,0,0,0,0,0,0,0,0,
0,0,0,0,0,0,0,0,0,0,0,99,194,252,252,204,69,0,0,0,0,0,0,0,0,0,0,0,
0,0,0,0,0,0,0,0,0,0,0,0,4,113,235,253,239,62,0,0,0,0,0,0,0,0,0,0,
0,0,0,0,0,0,0,0,0,0,0,0,0,0,45,193,253,232,0,0,0,0,0,0,0,0,0,0,
0,0,0,0,0,0,0,0,0,0,0,0,0,0,0,37,205,247,63,0,0,0,0,0,0,0,0,0,
0,0,0,0,0,0,0,0,0,0,0,0,0,0,0,0,94,252,180,0,0,0,0,0,0,0,0,0,
0,0,0,0,0,0,0,0,0,0,0,0,0,0,0,0,85,252,189,0,0,0,0,0,0,0,0,0,
0,0,0,0,0,0,0,0,0,0,0,0,0,0,0,0,128,252,189,0,0,0,0,0,0,0,0,0,
0,0,0,0,0,0,0,0,0,0,0,0,0,0,0,43,227,250,70,0,0,0,0,0,0,0,0,0,
0,0,0,0,0,0,0,0,0,0,0,0,0,0,36,227,252,196,0,0,0,0,0,0,0,0,0,0,
0,0,0,0,0,0,0,0,0,107,18,8,31,127,223,253,245,72,0,0,0,0,0,0,0,0,0,0,
0,0,0,0,0,0,0,0,0,185,239,197,252,252,252,199,56,0,0,0,0,0,0,0,0,0,0,0,
0,0,0,0,0,0,0,0,0,18,209,252,252,182,103,18,0,0,0,0,0,0,0,0,0,0,0,0,
0,0,0,0,0,0,0,0,0,0,0,0,0,0,0,0,0,0,0,0,0,0,0,0,0,0,0,0,
0,0,0,0,0,0,0,0,0,0,0,0,0,0,0,0,0,0,0,0,0,0,0,0,0,0,0,0,
0,0,0,0,0,0,0,0,0,0,0,0,0,0,0,0,0,0,0,0,0,0,0,0,0,0,0,0,

//im4
0,0,0,0,0,0,0,0,0,0,0,0,0,0,0,0,0,0,0,0,0,0,0,0,0,0,0,0,
0,0,0,0,0,0,0,0,0,0,0,0,0,0,0,0,0,0,0,0,0,0,0,0,0,0,0,0,
0,0,0,0,0,0,0,0,0,0,0,0,0,0,0,0,0,0,0,0,0,0,0,0,0,0,0,0,
0,0,0,0,0,0,0,0,0,0,0,0,0,0,0,0,0,0,0,0,0,0,0,0,0,0,0,0,
0,0,0,0,0,0,0,0,0,0,0,0,0,0,0,0,0,0,0,0,0,0,0,0,0,0,0,0,
0,0,0,0,0,0,0,0,0,0,0,136,65,0,0,0,0,0,0,0,0,0,0,0,0,0,0,0,
0,0,0,0,0,0,0,0,0,179,242,250,163,11,0,0,0,0,0,0,0,83,16,0,0,0,0,0,
0,0,0,0,0,0,0,0,79,224,254,166,98,0,0,0,0,0,0,0,37,250,97,0,0,0,0,0,
0,0,0,0,0,0,0,31,246,254,254,81,46,0,0,0,0,0,0,0,41,245,113,0,0,0,0,0,
0,0,0,0,0,0,5,150,254,239,191,4,0,0,0,0,0,0,0,0,120,254,143,0,0,0,0,0,
0,0,0,0,0,0,150,254,254,156,46,1,0,0,0,0,0,0,0,21,233,254,62,0,0,0,0,0,
0,0,0,0,0,22,237,254,247,73,0,0,0,0,0,0,0,0,0,54,254,245,42,0,0,0,0,0,
0,0,0,0,0,208,254,254,150,0,0,0,0,0,0,0,0,0,0,167,254,245,90,0,0,0,0,0,
0,0,0,0,0,242,254,234,23,0,0,0,0,0,0,0,21,40,83,245,254,254,127,0,0,0,0,0,
0,0,0,0,0,242,255,250,153,134,196,167,186,208,208,224,235,244,254,254,194,206,40,0,0,0,0,0,
0,0,0,0,0,118,245,218,254,254,254,254,254,254,240,234,190,130,254,254,161,89,0,0,0,0,0,0,
0,0,0,0,0,0,41,93,218,237,114,58,58,58,31,21,0,35,250,254,125,0,0,0,0,0,0,0,
0,0,0,0,0,0,0,0,0,0,0,0,0,0,0,0,0,83,254,254,60,0,0,0,0,0,0,0,
0,0,0,0,0,0,0,0,0,0,0,0,0,0,0,0,2,197,254,237,24,0,0,0,0,0,0,0,
0,0,0,0,0,0,0,0,0,0,0,0,0,0,0,0,92,254,254,201,0,0,0,0,0,0,0,0,
0,0,0,0,0,0,0,0,0,0,0,0,0,0,0,4,191,254,254,100,0,0,0,0,0,0,0,0,
0,0,0,0,0,0,0,0,0,0,0,0,0,0,0,64,254,254,182,3,0,0,0,0,0,0,0,0,
0,0,0,0,0,0,0,0,0,0,0,0,0,0,0,118,254,226,23,0,0,0,0,0,0,0,0,0,
0,0,0,0,0,0,0,0,0,0,0,0,0,0,0,197,250,217,5,0,0,0,0,0,0,0,0,0,
0,0,0,0,0,0,0,0,0,0,0,0,0,0,0,134,160,27,0,0,0,0,0,0,0,0,0,0,
0,0,0,0,0,0,0,0,0,0,0,0,0,0,0,0,0,0,0,0,0,0,0,0,0,0,0,0,
0,0,0,0,0,0,0,0,0,0,0,0,0,0,0,0,0,0,0,0,0,0,0,0,0,0,0,0,
0,0,0,0,0,0,0,0,0,0,0,0,0,0,0,0,0,0,0,0,0,0,0,0,0,0,0,0,

//im8
0,0,0,0,0,0,0,0,0,0,0,0,0,0,0,0,0,0,0,0,0,0,0,0,0,0,0,0,
0,0,0,0,0,0,0,0,0,0,0,0,0,0,0,0,0,0,0,0,0,0,0,0,0,0,0,0,
0,0,0,0,0,0,0,0,0,0,0,0,0,0,0,0,0,0,0,0,0,0,0,0,0,0,0,0,
0,0,0,0,0,0,0,0,0,0,0,0,0,0,0,0,0,0,0,0,0,0,0,0,0,0,0,0,
0,0,0,0,0,0,0,0,0,0,0,0,0,0,0,0,0,0,0,0,0,0,0,0,0,0,0,0,
0,0,0,0,0,0,0,0,0,0,0,0,0,0,0,0,0,0,0,0,0,0,0,0,0,0,0,0,
0,0,0,0,0,0,0,0,0,26,121,121,121,190,255,253,253,253,253,253,232,44,0,0,0,0,0,0,
0,0,0,0,0,0,0,132,240,242,252,252,252,252,253,252,252,252,252,252,252,93,0,0,0,0,0,0,
0,0,0,0,0,0,85,248,252,252,252,252,252,252,159,158,193,252,252,252,216,10,0,0,0,0,0,0,
0,0,0,0,0,0,64,240,252,252,176,39,39,39,0,0,15,107,252,252,182,30,0,0,0,0,0,0,
0,0,0,0,0,0,0,213,252,252,195,25,0,0,0,0,110,216,252,174,25,20,0,0,0,0,0,0,
0,0,0,0,0,0,0,56,213,252,252,196,51,0,26,180,245,252,238,52,0,0,0,0,0,0,0,0,
0,0,0,0,0,0,0,0,109,252,252,252,248,173,211,252,252,239,86,0,0,0,0,0,0,0,0,0,
0,0,0,0,0,0,0,0,25,196,252,252,252,252,253,252,242,153,0,0,0,0,0,0,0,0,0,0,
0,0,0,0,0,0,0,0,0,23,127,247,252,252,253,252,163,3,0,0,0,0,0,0,0,0,0,0,
0,0,0,0,0,0,0,0,0,0,0,90,252,252,253,252,252,110,0,0,0,0,0,0,0,0,0,0,
0,0,0,0,0,0,0,0,0,0,20,204,253,253,255,253,253,173,0,0,0,0,0,0,0,0,0,0,
0,0,0,0,0,0,0,0,0,0,97,252,252,195,146,247,252,206,23,0,0,0,0,0,0,0,0,0,
0,0,0,0,0,0,0,0,0,49,244,252,240,12,0,81,242,252,102,0,0,0,0,0,0,0,0,0,
0,0,0,0,0,0,0,0,0,166,252,252,126,0,0,0,226,252,242,56,0,0,0,0,0,0,0,0,
0,0,0,0,0,0,0,0,53,238,252,252,106,0,0,0,122,252,252,66,0,0,0,0,0,0,0,0,
0,0,0,0,0,0,0,0,53,238,252,252,106,0,0,0,94,252,252,66,0,0,0,0,0,0,0,0,
0,0,0,0,0,0,0,0,0,186,252,252,127,0,0,39,189,252,241,56,0,0,0,0,0,0,0,0,
0,0,0,0,0,0,0,0,0,103,252,252,247,160,161,247,252,252,171,0,0,0,0,0,0,0,0,0,
0,0,0,0,0,0,0,0,0,23,197,247,252,252,253,252,247,196,22,0,0,0,0,0,0,0,0,0,
0,0,0,0,0,0,0,0,0,0,0,76,126,252,253,126,75,0,0,0,0,0,0,0,0,0,0,0,
0,0,0,0,0,0,0,0,0,0,0,0,0,0,0,0,0,0,0,0,0,0,0,0,0,0,0,0,
0,0,0,0,0,0,0,0,0,0,0,0,0,0,0,0,0,0,0,0,0,0,0,0,0,0,0,0,

//im1
0,0,0,0,0,0,0,0,0,0,0,0,0,0,0,0,0,0,0,0,0,0,0,0,0,0,0,0,
0,0,0,0,0,0,0,0,0,0,0,0,0,0,0,0,0,0,0,0,0,0,0,0,0,0,0,0,
0,0,0,0,0,0,0,0,0,0,0,0,0,0,0,0,0,0,0,0,0,0,0,0,0,0,0,0,
0,0,0,0,0,0,0,0,0,0,0,0,0,0,0,0,0,0,0,0,0,0,0,0,0,0,0,0,
0,0,0,0,0,0,0,0,0,0,0,0,0,0,0,0,0,0,0,0,0,0,0,0,0,0,0,0,
0,0,0,0,0,0,0,0,0,0,0,0,0,0,169,207,33,0,0,0,0,0,0,0,0,0,0,0,
0,0,0,0,0,0,0,0,0,0,0,0,0,0,168,254,105,0,0,0,0,0,0,0,0,0,0,0,
0,0,0,0,0,0,0,0,0,0,0,0,0,84,249,254,105,0,0,0,0,0,0,0,0,0,0,0,
0,0,0,0,0,0,0,0,0,0,0,0,0,89,254,254,105,0,0,0,0,0,0,0,0,0,0,0,
0,0,0,0,0,0,0,0,0,0,0,0,0,89,254,193,14,0,0,0,0,0,0,0,0,0,0,0,
0,0,0,0,0,0,0,0,0,0,0,0,0,89,254,184,0,0,0,0,0,0,0,0,0,0,0,0,
0,0,0,0,0,0,0,0,0,0,0,0,7,204,254,184,0,0,0,0,0,0,0,0,0,0,0,0,
0,0,0,0,0,0,0,0,0,0,0,0,0,89,254,184,0,0,0,0,0,0,0,0,0,0,0,0,
0,0,0,0,0,0,0,0,0,0,0,0,13,209,254,178,0,0,0,0,0,0,0,0,0,0,0,0,
0,0,0,0,0,0,0,0,0,0,0,37,209,254,254,69,0,0,0,0,0,0,0,0,0,0,0,0,
0,0,0,0,0,0,0,0,0,0,0,107,254,254,254,184,0,0,0,0,0,0,0,0,0,0,0,0,
0,0,0,0,0,0,0,0,0,0,0,3,187,254,254,134,0,0,0,0,0,0,0,0,0,0,0,0,
0,0,0,0,0,0,0,0,0,0,0,0,185,254,155,3,0,0,0,0,0,0,0,0,0,0,0,0,
0,0,0,0,0,0,0,0,0,0,0,0,185,254,238,7,0,0,0,0,0,0,0,0,0,0,0,0,
0,0,0,0,0,0,0,0,0,0,0,0,185,254,254,8,0,0,0,0,0,0,0,0,0,0,0,0,
0,0,0,0,0,0,0,0,0,0,0,0,185,254,231,7,0,0,0,0,0,0,0,0,0,0,0,0,
0,0,0,0,0,0,0,0,0,0,0,0,185,255,87,0,0,0,0,0,0,0,0,0,0,0,0,0,
0,0,0,0,0,0,0,0,0,0,0,0,173,254,87,0,0,0,0,0,0,0,0,0,0,0,0,0,
0,0,0,0,0,0,0,0,0,0,0,0,9,254,87,0,0,0,0,0,0,0,0,0,0,0,0,0,
0,0,0,0,0,0,0,0,0,0,0,0,9,254,87,0,0,0,0,0,0,0,0,0,0,0,0,0,
0,0,0,0,0,0,0,0,0,0,0,0,0,0,0,0,0,0,0,0,0,0,0,0,0,0,0,0,
0,0,0,0,0,0,0,0,0,0,0,0,0,0,0,0,0,0,0,0,0,0,0,0,0,0,0,0,
0,0,0,0,0,0,0,0,0,0,0,0,0,0,0,0,0,0,0,0,0,0,0,0,0,0,0,0,
};

#endif /* SRC_IM1_H_ */
